-0.3620578382381013,-0.10234598489711229,0.32170311653617323,0.03251993188418478,0.017398302756987664,-0.021418292506470277,0.4146018650636635,-0.11875813643363371,0.43677789895000224,0.17148401768119587,-0.41586196492919053,0.3545167365570277,0.3436545781962145,-0.6110500590871598,0.4602307814703326,-0.6576576453936138,-0.4412414481300236,0.437255418901794,-0.06269142034288229,0.12469382958158098,-0.3406947990876084,-0.3066639623603594,0.4411519584964993,0.32719434097001576,0.24700697952579068,-0.08513030705281349,0.04918958859691909,-0.0051106601138522735,0.3075383995130882,-0.48475130529369864,-0.23583927584541917,0.16401738420754575,-0.3264525092542868,0.09466747205789673,-0.28514898580246967,0.1070388319890675,-0.30572629766724263,0.29925106468768553,-0.3852496059705993,-0.18245277868972046,-0.20123268429785846,0.34153367614486896,0.35215707503896804,-0.09981831649312288,-0.3946836038805102,0.047892401094561686,-0.2301910129705267,-0.2959965730683515,0.4681203674891206,0.4585287112516939,0.2294971642811616,0.31670163410254915,0.27442042701085106,0.019514434957957454,0.24330613655557667,-0.03908329283636027,0.19173351363169744,0.4021178872092597,0.498803407543914,-0.4351504918542116,0.28359865371902393,-0.17978459167556116,0.004061827741411368,-0.23754960590459842,0.2800847908684782,0.23083456121812815,0.06304897561504987,-0.18769222221228904,-0.06662912266615738,0.1849224624893468,-0.19004338327121278,0.13499084327986885,-0.34622613552264325,-0.3455724641018987,0.03348196069262351,-0.12802282332057655,0.22160708823314798,-0.2528215652454009,-0.21819807298646357,-0.2899239710024953,0.2763998449702997,-0.04441233341901304,-0.3957350125692595,0.2803621378088644,-0.2729359954699204,-0.4464599379919962,0.24957410082242473,-0.4152024804916328,-0.2747052023126358,-0.050112337869802744,0.37757184965379564,-0.11472846176726278,-0.11795947542177924,0.12995795055347673,0.47829336429837765,0.005854964156555971,0.0403881359010638,-0.03965615339148179,-0.26126777823789454,0.13988488769489307,-0.03968861677998032,0.1622924672356707,-0.3613109347335106,0.4277585069291626,0.05674123134633924,0.4101376825362539,0.012728082186508456,-0.17877251247232614,0.0014195737694801826,-0.5727566179219254,-0.448441584210569,0.48456064708749214,-0.03752242570743905,0.26764818405031265,-0.13221553778696998,0.45789980008688574,-0.10513181303398575,0.16431782795905678,0.3403254179555108,-0.3137236458215223,-0.06440548825395066,0.030203980020140492,-0.07746779730065936,0.33070843569528147,-0.153737559543808,-0.1921579414923682,0.2257473123652208,-0.25028732688194405,-0.23273821000711137,0.2751145672440946,-0.36738255215339316,0.36916656045885743,0.17810100003893137,0.35852964005260507,0.19311279774857842,0.3563943085408835,-0.07691267710260352,-0.3609294092583818,-0.5955039697558502,0.11624752286657626,0.2688543580367226,0.18369236312403128,0.34194132939411276,-0.35573835761141565,-0.0047882481922537625,-0.49131397039813046,-0.33122183675900563,-0.4747756498626012,0.08774477573808327,-0.006849355307179474,-0.29810384132321477,-0.15026704982175104,-0.16207565689831613,0.027570588681399607,-0.4570790569576792,0.0363962379857804,0.31354374014004166,-0.1438094664381858,-0.14495549572728056,0.4040019619236652,0.2804688192827908,0.48167726622899026,0.12105257050688974,0.3170208558986459,0.406102507746839,-0.19982465391427895,-0.38498664526196935,-0.2834662277272546,-0.43705001491603984,0.23267246181971088,0.38195436241301967,0.38296955044567366,0.22570726359682014,-0.4279301072830374,-0.2448790253235931,-0.20039561481335583,-0.44750013141755557,0.12325938520501033,0.20208994710201286,0.3067692479545102,-0.25375819947825234,-0.23574610767325269,0.3849383087844701,0.12360842581847353,-0.678552782000001,0.17162834098396143,-0.16642990622135234,0.2659020087312038,-0.3297585801757629,-0.056402100987282475,0.11550962643666512,0.07614532979824404,-0.28919345883685077,0.22039459780394824,0.30063133212317583,0.11088293461734788,0.3553002733897809,0.11740892249262821,0.08424227049043453,0.014581394373446806,0.00582615284207405,-0.17496946189596768,0.056436294694690914,0.3725317517897863,-0.46516856495199055,2.1776662063123133,-0.4042382831337388,-0.6895292033127178,-0.16551317350623587,0.09692232234077837,0.008328349045997867,-0.07064634801136213,0.319344879639668,0.16789004374679756,0.022924275756031065,-0.13614791301768392,0.45101740720100864,0.37847797391641747,0.2839460861029085,-0.3593224265941057,-0.08643657653051715,-0.22617299233285207,0.09988234712343255,0.030710187996124055,0.1711265213277443,-0.35913954895584715,-0.49122405808275416,0.2197786617005732,-0.5282612122781342,0.3856556759495475,-0.7000693167110457,-0.1358818838902286,-0.28152288527456704,-0.3864723254292921,-0.02270512696185613,-0.28440453063378157,0.4735719749836161,-0.33768091817162693,-0.4607836059272654,-0.28026954745046484,-0.3321827112385434,0.16588065021913084,0.22033835946013944,0.3343567481960305,-0.49354266540791847,0.40909460987381313,0.2638569998134355,-0.34692128006451195,-0.33728255445407923,0.2871744741558042,0.41533247818239727,-0.22126766781604051,-0.16709979989726462,0.03624821382988376,-0.16781709761514368,0.49452049643667223,-0.2556263958222245,0.2770705514899121,-0.3026466508014009,0.19554952466325787,-0.21708022929582418,-0.33604841095672616,-0.39175318663162334,0.07188225335842088,0.4563678034691551,-0.30767640761061155,-0.19851178011876508,0.600562697684262,-0.40575082907797616,-0.25442257063492885,-0.013126401900505815,-0.4636930206850024,0.30772707212837486,-0.4637415362805686,0.03965012571080128,0.27226551736532234,0.3634456556347678,0.40577149624628794,0.4795333749062678,0.13845714947040078,0.47264875901912473,-0.011413045681467558,-0.16866040701616203,0.37564613335394004,-0.06074620797176058,-0.021257515367820678,-0.11843506008810349,-0.13423616457844084,-0.2568990280813008,0.10141612369748212,0.4404587863887189,0.3496605861964086,-0.49570857622519426,-0.3507863889400264,-0.4003986178782486,0.19366151632459314,0.0613546971215807,-0.3552936625951123,0.29291646041889247,-0.3766692934673935,0.6118605470242033,-0.1040208915032165,-0.32552815201424184,0.31791609501587836,-0.34668390333793203,-0.18644490807602473,-0.1367571248335925,0.32214127098244827,0.25748166297310143,-0.04017089382484023,-0.35364974203118005,0.15214003142140722,-0.4899368323367553,-0.48819239963528904,-0.30933085676048744,0.33725585175485123,-0.10328077686831327,-0.06500767977572554,-0.40609903598877506,0.3749809877272116,0.0466460288986647,0.018352138298629046,-0.2651033160217267,-0.3878070166538521,-0.43385747095431887,-0.6216888611285497,0.21116071104513834,0.48491223562458363,0.5336394493495962,-0.23645129970032627,-0.3696351668132938,0.009780721037634926,0.1431487140160709,-0.1028761352608894,-0.034925603030419805,0.2452941957627573,-0.3528581285924315,-0.25959855536801196,0.09405155537539671,0.37399479549153614,0.041804969861203654,-0.12065378087673478,-0.2404440575340778,-0.05400618119986794,0.43062634406535566,-0.06195524731522991,0.3544999505751542,-0.368766191170147,-0.24655415957865404,-0.11417706203648413
0.22268170442404092,-0.23617080750383043,0.47832694484159266,-0.45645380936510216,-0.1518153188942049,0.0327587365717541,0.23785574256647102,-0.08987650425694726,-0.011786473833993411,0.0047353729516766445,0.020269112875247203,-0.06991947009274684,0.32831628380019984,0.0608570185783056,-0.07786488349039195,-0.4501622902082793,-0.22596476230806167,0.042681448343780924,-1.2522868145497414,-0.12209098876891304,-0.283094990639173,-0.20647606759022155,-0.3347551376216312,-0.44087789279814293,-0.325760190307368,-0.4722744065373262,-0.15475296122830837,0.30255516181335346,-0.051662508897095775,0.11552462259614343,0.11557694703048269,-0.2305507579468827,0.1738409323305674,-0.18703294656960792,-0.4152547431677717,-0.019461271756212446,-0.5222586609528501,-0.38374331604648143,-0.3432923518521991,0.4825018987669615,0.03259913911487114,-0.10314065417875073,0.3289832319601779,0.021401771742670134,-0.1444463655346166,1.0812680106821466,0.5734564460128279,-0.48351158936940875,-0.20344942044650113,-0.24808738475984976,-0.30374016265661835,-0.2893606784416208,0.1583778888295233,0.1985119624115151,-0.17888406900854467,-0.3887289103169025,-0.3293973857895874,-0.19114873917695738,0.33055293513524814,-0.36536995921921406,-0.26872280926176273,-0.27713068343231584,0.07496024275847848,0.010465902144667074,0.40531559133337186,0.05586257658962093,-0.3456044238540196,0.06409567709380003,-0.2870911023501008,0.15793781036247093,-0.2817761336474016,-0.30203505086849475,-0.26226409501687975,-0.020573944747609884,0.014228230114672658,0.2987650646922744,-0.18688812445418446,-0.44524218061380433,-0.39318496873279407,0.4365692953604482,0.19142456160044655,-0.2852275075416234,0.4010333704861884,-0.1774801068286636,0.1443231536987187,-0.26252859601187095,0.1889937900129801,0.36814002322010597,-0.31795179100278254,-0.2805660834100452,-0.3858317044312798,0.27809571960252477,0.1729658577274243,-0.14907787424385155,-0.10170202161292873,0.1504369628719059,0.11183660056981838,0.19643496819524994,-0.30787882061910543,-0.3170473170506383,0.3049547220235736,0.2531582809057402,-0.10544414549265936,0.2831986046957793,-0.2243457172444896,0.1815171801058544,0.276082622386544,-0.10104797939604404,0.2585476356468913,0.1614418213327161,0.35706061325266153,0.2365286287502252,0.4562179212635552,-0.020426287662949738,0.2494622191815542,-0.10956552836994884,-0.1310918776382992,0.0682228749017218,0.09342162353761888,-0.2297591125566229,-0.24976534002456882,0.46163377773349706,-0.3670898115068984,-0.08264335500182605,-0.12255848973510354,-0.2632157461289826,0.05410587136477117,-0.10711498418801942,0.03644181372959656,0.08538467774606505,-0.0649822374084395,0.22005361015158517,-0.1956560912637531,0.18660114425018814,0.004198525148087998,0.5510617889159439,0.3359787657272336,-0.1996174517948776,-0.12065720005872656,0.28851729166659285,-0.37180386346010097,0.22090380620358513,0.4379339131265996,-0.1583114473778833,0.20369137043783975,-0.2440010036258009,0.46408301010307207,-0.18538602553153108,0.29386159473957885,0.18552651051461005,-0.3830546447911873,0.4246877586624077,-0.2338327205581661,-0.01492677087719404,-0.02036895798157655,0.1749197437524038,0.2155170250377561,0.3705706449453511,-0.14264431344411502,-0.21879116535261417,0.2057537370555013,-0.45623335006113563,0.037519143314705114,-0.1876922926930446,0.22223989912094128,0.30666976557585157,-0.20663032721958274,0.3422598331843355,-0.05374450596554345,-0.3956824857875069,0.22146977672966198,-0.27848706803427453,-0.1784528740484812,0.32096050524600606,-0.11912938062420145,0.06712789982783854,0.27915105873253404,0.08480758761933817,-0.4094151780317801,0.4898001398678428,0.42558592844023696,0.12784821403864877,-0.09346806377990234,0.30689998472884916,-0.6943755709187123,0.09216856810064654,0.2443472595469821,0.39870386111220735,0.25637185967258075,-0.13432694636155,-0.32924678026817134,0.11032826937835298,0.44538270867853463,-0.10515775811400986,0.45492007841438264,-0.1943251650668935,-0.12392532246870036,-0.5482775372185633,-0.3425474645537069,-0.3575555497352879,-0.11945866405755402,0.26113099306966614,-0.0008244007414148768,-0.20929946939240016,0.1856321910232795,-0.003015835191542603,-0.10605792926321787,0.3522588182376655,0.355707947304001,-0.1476751942556101,-0.4133193609505022,0.23050136190477646,-0.45322606458471043,-0.4569564503312275,0.1564233824516187,0.43888555206547586,0.06430697544481681,-0.09672214350093089,0.054188046859143864,-0.3437930234905496,0.18038245126314817,0.3781664984344017,0.03877320366811917,0.22372967466614332,0.09396481130709611,-0.34363632235782937,0.4932147028445867,-0.4813135018935892,0.35300968155078866,-0.440453795612529,-0.35367190790256087,-0.3418529953539901,-0.30675619613239846,0.42140756215749015,0.324780029222417,0.01352657001528287,0.18537761397259173,0.06005196912672255,-0.46108348583068465,-0.07053834670599131,-0.43292059713242903,-0.44568723291707774,0.1635853404220122,0.05711732426882512,0.20067081187591004,-0.3792910139894947,-0.40778526637485224,0.006263148737871227,-0.038250823574337935,0.11621157988765225,-0.09423371346820322,-0.11199883225687475,-0.2131272913858875,0.38583941200961624,-0.10698530698677193,0.4713945418967775,0.22541917090943717,0.4339949859456521,-0.42336849737556465,-0.15028116955126802,0.5448368161746572,-0.2629378552830493,0.27270444140015404,0.15744384297586023,-0.1732511872126091,0.2512203596116763,-0.4109658537520422,-0.271465436756466,0.06698518446212078,0.6364806640495094,0.1751267460704905,0.04190069162393437,-0.3290689535766171,0.20106868078407703,0.5093583441593512,-0.2355174452151414,0.004886225185758409,0.4718874406504756,-0.07287617013970892,0.14593664088739713,-0.13186673173237873,-0.3120238872531728,0.32138424647635333,-0.11176629283250236,0.3469883099865231,-0.19131808403094983,0.03366885536029411,0.28855663703892415,0.17446437834920084,-0.040554162962861434,0.07627137015238043,-0.4465215352220061,0.1434269566353531,-0.49619481767910145,0.2731153518979818,-0.13044858201791737,0.0025841617012601127,-0.11717991810635356,-0.26851868196761197,-0.2895641366682895,-0.4350717807597279,0.39138556020433085,-0.24856019832122503,-0.26185372195790363,-0.11295120581888009,0.251000644866546,-0.3762067366007725,0.29691865190642064,-0.2992557596346912,0.053310225310237304,0.12844620236125623,0.025410742699908166,0.19184100793565073,-0.12589187335479515,0.32369798862196336,-0.3233168993602103,0.38071332069659114,0.06268617747728021,-0.45601702848514747,0.07753408801654887,0.4738226270162475,0.38495203083914675,-0.30844329387131936,-0.3759835891413471,0.44576282784320787,1.3800099706084108,-0.05180328335093631,0.46302815125236063,-0.41089142296906567,0.1612372939551147,0.01461058950952657,0.20550226553675002,0.18518408338043482,0.15715327983991362,-0.20368560457985574,-0.42243904970109813,0.14687301263496377,-0.014838111119963455,0.258979958694051,-0.18701154338189513,0.023296895405577996,0.011085654393505508,-0.17164953448911283,-0.032589994967653794,-0.2933243704242103,0.435012203262245,-0.2874223727860494,0.4572782117409203,-0.026708283651782273,-0.45356717974724414
0.005176996613970724,-0.055602618671853024,0.012106270768506752,0.1851606789451627,0.19818074206758374,-0.42739918711044794,0.0668814585936122,0.7074295048571013,0.33409470152445725,-0.3791222652285643,-0.30338980071949545,0.17437039608589325,-0.10513087626238612,0.3527270942893218,0.017473851579841666,-0.3110475487563533,0.34485131773063094,-0.4238176272289785,0.07648463160117008,0.4186603131282957,-0.43469559240780753,0.41809606543377587,0.07745896435373353,-0.4541049158878243,0.29069561917608316,-0.21956579013241057,-0.2485792796911583,0.08552578814125093,0.2198220435611647,-0.25845421269413527,0.10027280683245884,0.004218540002389701,-0.26971296860684757,0.21857376632025532,-0.43657175381570185,0.09992082036523986,0.2924248273895592,-0.4723282318103865,0.49246446321089443,-0.3379574282752278,0.2330490791454485,-0.3902441996343905,0.03602033031604345,-0.2997460939495218,-0.01911042170520448,0.10139884650404157,0.0632375610311525,-0.532299692121163,0.18405703760124587,-0.010035429738611087,-0.008233253741459515,0.43791368621387133,0.1270631117640707,-0.18302630173229442,-0.4514475225316429,-0.2504684684732721,-0.13721168598144307,-0.38726118282629446,0.13565585851067813,-0.1805418789385209,0.4232125548641103,-0.3297815506268963,-0.44999396466540864,-0.2163565280153338,-0.03470076987101623,0.48958894267632996,-0.37188587099733944,0.3913993107676435,-0.002115967229958327,0.21797921363541437,-0.2238976571737029,-0.4357496377260848,-0.278496258720901,0.07358509032111578,-0.028994556672966892,0.08097659307248722,-0.2853942822905073,0.028552880182774642,0.46532359474207985,-0.4716848010876301,0.48164182470266265,1.0360402428011668,0.1677897654290001,0.4721078938264889,-0.36716444729020564,-0.3458049269045761,0.3180082046720255,-0.011168102648303702,-0.043068994323056456,0.32512164154959816,-0.046287025740294745,-0.16817038085398736,-0.3792040363410124,-0.47412756288226093,0.31501516099911087,-0.0892594072004013,0.4017277359607009,0.09854418004618899,0.4839120923970233,0.08738885188993144,-0.4874689446209758,-0.45276513503623184,-0.49707478973152525,-0.04187171267270997,0.2987374770220228,-0.12678575984577378,0.384703281052982,-0.3946944939890331,-0.3296247850915538,0.12270572067971255,0.028750349344461225,0.23677319682876527,0.35535742290675526,-0.14797653762362573,0.0185825142529903,0.04946123598217697,0.2798676754272753,-0.31168892478018057,-0.10978853340673517,-0.39304980588276023,-0.2570371207434175,-0.10742278763899651,-0.003539848449785638,-0.3984212059751004,-0.3642598680206982,-0.23014866362285624,-0.35753014065263405,-0.25786009589325004,-0.3220502435222888,0.31332213591590846,0.1150514124643734,-0.32507782438644356,0.08961048427156303,-0.11385705102465968,-0.19632242998587005,-0.40135625072172315,-0.1373576898685871,-0.062251962534596285,0.46514597102689464,-0.0937387243825869,-0.2981432049859233,0.3234064622489155,-0.3579956720733034,0.47697913760156163,0.15948783662387447,-0.27783107856353034,0.08259139163000712,0.2531589198578395,-0.41521207243631714,-0.035841838208589806,-0.4122429431500876,0.041821835530124314,-0.1206610199981623,-0.011471073116517965,0.4604193541351332,-0.004863239426748728,-0.4069248298922836,-0.060689910991038216,-0.05864251331438381,-0.41699988652722264,0.284504152444582,-0.26004110443509376,0.09456500805323839,-0.37917169078099333,-0.19075305239562418,-0.13988408826152937,-0.1840777236206636,0.1489151228498904,-0.47880712735377917,0.450048357696758,0.4996165836415036,-0.338968798040795,0.3077745696171519,-0.33440922321621747,-0.35432721203673967,0.4694207276858655,0.33923164524149024,0.2723396711398313,0.10170491242168128,0.03834765638144662,-0.11400709697266685,-0.2309803523874607,-0.11546414615929138,0.3362058548218957,-0.14819035160519872,-0.08799854239045717,0.2856964110143495,-0.49837734852878157,0.27100711497271673,0.06879994620634491,-0.39672239785451,-0.2952844072739316,0.2128818293525168,0.06902606372464189,0.32444260866066077,0.012253902906113716,0.15452135019050084,0.9791721741479898,-0.14998017176078726,-0.3351553585182798,-0.12447023899102018,0.17803214231617162,-0.4805128416337303,0.2029112470210622,-0.4601103500127905,-0.7945133454685603,-0.48742757105372936,0.15232996935864562,0.4917330953694632,0.212482047733162,0.24824778971011557,0.12770550961192959,0.09003973564582818,-0.0634871798532746,-0.48566799373381353,0.36764220207781645,-0.3209822845663744,0.2869416882814344,-0.010990584567106679,-0.45977591984455496,-0.3308920242377256,-0.14908672536616166,-0.49697662780102764,0.4877837078858378,-0.133843960194445,0.4978067711202215,-0.2983108347419201,0.36809821761184885,-0.5608026965488758,0.24370588974878726,-0.10176329764640331,-0.1651584233474568,0.16288758612477544,0.27491360112963914,0.08733132215377892,-0.4008026501943989,0.07603385623314955,-0.3103202519271819,0.30283892048886274,-0.17571476474204487,0.1820884484814336,0.29251514109209614,0.05093391641336736,0.012085548999567363,0.029988681610993818,-0.18187692720233414,0.17728025282135246,0.22672398283926126,0.2808215239551913,0.19552737345043333,-0.2313207319125919,0.38520903471298684,-0.2779252956599,-0.04276779977927708,0.015638426946401548,-0.23158325081654033,0.5036047792069075,-0.3522019000196823,0.1586670878489558,0.5624679665262495,-0.04038974816119432,-0.14491599426663668,0.43805786771666755,0.6101356985975568,0.06368583188821253,-0.023124250529248862,0.28764089552692795,0.43351712097447737,-0.005928459412589422,0.37144331017988796,0.03554467165759757,0.12739206383820778,-0.18913276806492943,0.39104170387318316,0.030888940410003226,0.4640530061168828,0.0650052419467213,0.013297923796053105,0.0035558042410427267,-0.48644639756886154,-0.32311707587037675,0.6977927459527584,-0.1468399490423089,-0.3766049686194744,-0.2541184361019634,0.2595339252057449,0.30608887469358137,-0.2931616833999621,-0.29484010198352517,-0.44715367988976457,0.17749600573228788,-0.06542422623517652,-0.4310664545833,0.489995667713969,-0.06821226724195188,0.1157580289392238,0.375302955437266,0.36870620431407214,0.7798044129089463,0.3102158390289166,-0.017953053732867322,0.12629197139659853,0.29931978456499986,-0.2833208649647272,0.09683387867602003,-0.04847333398548601,-0.11571066367420889,-0.2663842735977558,-0.4261242650496008,-0.04593293916481377,-0.3155463383751175,-0.25159765491317465,-0.3082765183430303,0.4225524855308322,0.2479027678889041,-0.3647455641311852,-0.19321886753068485,-0.45728520169558085,0.20465576525998252,-0.19912950692690962,-0.2918887350744221,-0.44687891897414267,0.40569959893459345,-0.40774079965834575,-0.041999418981671366,-0.30875554500676156,0.3873321594263469,-0.36694503481738583,0.3889533616998918,-0.4632877035933865,0.45857901670354256,0.31783524335048824,0.13978978936063843,0.08517759408861306,-0.2625548103506269,-0.45574623465664166,0.4006657552290191,0.32186199831814705,-0.18936791958121507,-0.2983048869963156,0.016220029085942753,-0.2818165375853937,0.5232796353363033,-0.22951359611989927,0.3831305658621509,-0.49643019326918286,0.4408559012508503,0.14607056143150873,-0.4795604000451133,-0.16016479513834742
-0.44734086659546474,-0.21519108107959656,-0.08759085061731653,0.040022976354464966,0.22365728605053325,-0.10916672368376414,-0.2658890938234934,-0.356493598836694,0.3187024042629357,-0.2750773107497942,-0.3437834831357755,-0.4122773856654026,-0.20316096247662932,-0.36034344483008174,0.49263328591880023,0.47136072099893433,0.33417104359872996,-0.09121574518160536,0.8358131312757705,0.2804344818799942,-0.43916579980648396,0.19094347067316542,0.3677831032352066,0.28852911613355264,-0.3455164941061818,0.1023081645200064,-0.2894434388168847,-0.01972073133433711,-0.47735017110910694,0.43286412228274707,-0.17220026279364695,0.27488101266607906,0.2793468232825759,0.11564586125794327,0.07931337427839079,-0.414139662517262,0.40957406022247766,-0.378467269022445,0.10690595929092238,-0.45761877392857675,0.09937652851940994,0.39348943011236204,0.18378809449116015,0.5794239928413525,0.4581204288901627,0.9767715462384171,0.10699800884312816,0.3255093945483888,0.5320288163496366,-0.4140954323160069,-0.1572955368187467,-0.40655249768381124,0.10245511109716765,0.059465656705574584,-0.37141402639871957,-0.31602507657856665,-0.4357822626933462,-0.1080823791773974,-0.1529781308625751,0.45417338633335513,-0.1484119572630301,-0.20463209259868742,-0.18217765629300037,0.23320119783578672,0.09208566886321445,0.3185171500668253,-0.0630892042593826,0.10514139555104252,-0.5079402790930194,0.020730464533557643,0.12966633362886312,0.4095849680993627,0.23648713826797482,-0.5295701416537001,0.005872947694063779,-0.023506194763043154,-0.3779426289220931,0.3669579848685925,0.01443329884261175,-0.47810889451835265,-0.4456255651162811,-0.35313226484613375,0.11982507174521664,-0.17550248015156333,-0.056202388589228436,-0.23817928828004442,-0.3650357246305097,0.014480958785358156,-0.20524716151929914,-0.08153165083621405,-0.22611855884190563,0.2460783322919628,-0.05425244379032418,0.22945609298388095,0.10703498950306393,0.11574281681821204,-0.5594750603528632,0.3427791239499125,-0.4467481643435408,0.09820142832148983,-0.29249116734820557,-0.42570349858599477,0.33563589756736995,0.06191655940248364,-0.15336914810092994,0.19290553716488365,-0.3411526961515368,0.22147539102936584,-0.25538951412098165,-0.003457923154893196,0.09694898621838385,-0.07878650695618421,0.30346366965819804,-0.254131532224553,0.30401427459185654,0.3229765680583083,0.46634740376278655,0.2977863367389114,0.17822614345247542,0.0002748983392976709,-0.17841414427400362,0.05585015231197483,0.48636979623742477,-0.21525923787266504,0.5387402580111771,0.2241594036533176,-0.15388851477829676,-0.21295609657729359,0.04939433284639539,-0.08536985362920625,-0.30593204988644795,0.30785244415035584,-0.4451557276564123,-0.268291327459292,0.46102163245174055,0.04905086779413514,0.15226953125367715,-0.36437613834783233,-0.11596198441706185,-0.3975787472434813,0.21437947855699074,-0.20155637979817362,0.11966969163308849,-0.25347601620547544,-0.3295167376823329,-0.06309545624325602,-0.06725153518043098,-0.43578447589045943,0.09722667346438561,-0.32997195454902867,-0.2624421596831273,-0.05476385108831654,-0.27907177588062465,-0.4610585018190027,-0.608739247911698,-0.4672388122571035,-0.3294786150164842,-0.22996775671876335,-0.08956442183578797,-0.2613525263957241,-0.14189851390507352,0.47381941806869643,-0.2959851558536456,-0.20339904203413744,-0.09629417286023673,-0.35160520635981174,0.1792979785450425,-0.030052297798191296,0.0061291135394814615,-0.32091735269115834,0.11818008067620162,0.3740224157283528,-0.40090699711154976,0.2612537520477516,-0.1780955858574277,0.10096599249681028,-0.0826998575956688,0.06150735349006689,-0.30737760091433736,-0.01182199153642704,0.16475003837197935,-0.27123474854467394,-0.3260121610374541,0.2991228564539767,-0.22254409854054336,0.15950743993224592,0.018697260120397297,-0.18543381903214706,0.8546436023882569,-0.09817673933135694,-0.29319042218370095,-0.3554840714120954,-0.06557484676864418,0.07712659820985066,-0.4003907074304943,-0.34658948565447956,0.383817734437342,-0.2454901552904055,0.041209570997186806,-0.31185180823333014,-0.27412013542315433,0.28723743384299316,-0.01610439284490861,0.2903777593121345,-0.3507174532958753,-0.7633078902924888,0.03526133393006038,-0.07436307034191274,0.146963693967551,0.2929257935267359,0.28882581920753325,-0.19136809378670236,-0.32691399619299644,0.30380829519543656,-0.35223242398286336,-0.3321261559629259,-0.3476986119000434,-0.5203082054635055,0.12977368148244128,-0.22793632736669459,-0.8406377396676336,-0.1941050112587549,-0.11025937714557972,-0.487728305083905,0.39869795773146743,-0.4010204774004638,-0.02467849357218932,-0.08547389230526052,-0.23496759385083363,0.33342504382906196,-0.4807974635161223,0.19855911933298714,0.16454764005508,-0.04376154120611662,0.38357284829294175,0.4717391084698031,-0.11259031059555344,-0.004092634171060631,0.32088316320834526,-0.28018886852899166,-0.0097160092435645,-0.511233168456141,-0.16778888203168318,0.21557948032595434,-0.4338288994600316,0.0285658215560861,-0.5171354026787325,-0.3531471759387439,-0.5637268680009498,-0.2020332326222225,0.1970722779648599,0.054651191193990645,0.27445495522910923,0.07954320857709095,-0.4849428342770012,0.1748910760242869,-0.5229522604549243,0.35074022137900707,0.8716618422204758,0.47402641482742275,-0.06424815550032964,0.09862902811264256,-0.2992947736418651,-0.09454822273572332,0.48646685273236745,0.3887136688956019,-0.1086562216258312,-0.22601872277798032,0.11224177588651633,0.014683214252480599,-0.16252727585318358,-0.0399905830984159,0.26482116213277496,0.11356664587371616,-0.15143980017001724,0.44124235936887624,-0.18989547420875905,0.26843815592013265,-0.21727847798522854,0.057249742962355,-0.4937207355198195,0.7113744505547879,0.045030883994830614,0.2602628015254266,0.27918510770745986,0.21540843340257165,0.2565422323914785,-0.16230896157242197,0.5920947449394884,-0.0725551601053074,0.021880742114799543,-0.07482036963552285,0.0724831560954523,-0.4942409664406783,-0.5601806650764165,0.6444193589978152,0.2574304067132553,0.41977231795097614,-0.0035405978614427027,0.1704084096255168,0.0567970077628433,0.31588337130511224,-0.45978605177194765,-0.032733703432047394,-0.6915270276964829,-0.09634913780807239,0.37437481528997,-0.43954233184604535,-0.23499039974733538,-0.47735915650884525,-0.23605826234253402,0.1960253781613438,-0.5893429228128598,-0.44217577404826386,-0.42754901292176767,0.4020103638306592,-0.05988888548634275,-0.43653580648738016,0.35888639890906227,-0.2976113595355891,-0.4412122008246441,-0.39366850169481143,-0.440977127523676,-0.3296865591193825,0.04485982186315347,0.07696346735003651,0.2932999825351298,0.061417240371618664,-0.03643591920071276,-0.14207334695916696,0.27699225893276774,0.2720907164346089,0.08235183194025769,0.08046599526860755,0.37799124540610474,-0.21632940848134735,-0.3300161254730699,0.058860661735246615,-0.32430713641603603,-0.07237208296673771,-0.28088264203801155,-0.2706853081514205,0.10682601934228449,-0.374036840577054,-0.09280536076770989,0.3470512710017156,0.4657749865954403,-0.5980230982749405,0.4081324121817,0.27384517462731045
-0.3089029661657959,0.11901196434670905,-0.13343334678594798,0.5011911663833626,0.13905894243314632,0.19547929759662483,0.5019469226101089,0.266167798875024,0.28099342590951565,-0.3731302688638026,0.2751078457479141,-0.06823184713457837,0.09749030871849534,0.07704606232667677,0.4298253613762862,-0.3218274071979104,0.6393382042447343,-0.5811431417262383,-0.7518943746577735,-0.04622184885708184,-0.183565918315713,0.19267107430620387,-0.07497441355564351,-0.29204965428911805,-0.44862939490702786,-0.3287420635438605,-0.23273361416938013,0.4075482010626361,-0.24257977222404045,0.43299272861363286,-0.3117727438750078,-0.3626352344486309,0.0831465851859594,-0.05629240037223439,-0.3252543025314307,-0.03959072094533132,0.15277066909656556,-0.3356435931693284,0.08620422306292704,0.23326807353060658,-0.30184473487481966,0.308510119167553,0.25771436693434335,0.04085160694222079,-0.48588849514888144,0.4827473975660972,0.016571707683544875,-0.2958587394863332,-0.6941639629753708,0.04030930330375611,0.0924058027717355,0.08328637376863855,0.4497916592493132,-0.4100222716765844,-0.3413913827247403,-0.4103898784915077,0.027464598215497422,0.08499742987073428,-0.1725086045338519,-0.07418782751921374,0.46740491271059964,0.35385631063399625,0.16079068396466528,-0.04070189729084609,-0.2082736528707413,-0.1389125523302427,0.4657321671327794,-0.15440400189575468,0.003229861006477764,-0.08969639705270101,0.36005129427200583,-0.4882539814441542,-0.00932139076304378,0.07363367319751238,0.4509854919364463,-0.2971303984232309,0.35997123738019976,0.1983077705282406,-0.10085047352057677,0.3746652278346307,-0.2222231497535089,-0.2639956561604266,-0.07452607358411761,0.23970974576457876,0.34724625668297904,-0.36299156987787795,0.44818293358061634,-0.29177573863540673,0.30676816964154097,-0.023263623576037992,-0.19562268061897312,0.17342596333642174,-0.23974305326811374,-0.3549632658297814,0.1785639958744142,0.21965169316875863,0.06800487118769363,-0.12607044244233884,-0.3349953122428709,0.1390320073041673,0.3204660282749568,0.15007589416078404,0.4345647594381785,0.16939771757195382,0.04582433524310048,-0.004774101572934682,-0.389017474717453,0.24954180318865268,-0.23651729524548712,0.00982561315828902,0.2676839271502312,-0.3273530249362941,0.2948845208114595,-0.4170973426575839,-0.09576088156609892,0.11522191440571859,-0.0291840245601833,0.07114873005750362,0.6142489044250319,0.4635059665097787,0.21778761921777903,-0.4645653846589854,0.3409891081443711,0.13108388594268114,-0.38123744488142003,-0.16126655502513437,-0.4127266521626615,0.5019986886793938,0.014723968602282969,-0.43993459361814474,-0.01824200702868458,0.050430079122057436,-0.33799103851432155,-0.46833958310629914,0.1766716534362272,-0.26588206260417213,-0.3085486886126654,0.30620695378288243,0.0791460095234884,0.35591503259324536,0.21667178039680912,0.11448400325889162,0.15675575984881732,0.18229274950682894,-0.2756386024371774,-0.22806257326420545,0.08546059270677468,-0.041242202307685126,-0.2057817815248419,-0.43667161478050903,0.29021221530318453,0.2648729933703832,0.12241038466301517,-0.2085138192815983,-0.30045061672200296,0.20456388672771894,0.3992062374640122,-0.38844227213344407,-0.43340592637811,0.27999826000707595,0.15418316269386528,0.2498408387606891,-0.14220300176449022,0.12575316420028365,-0.25168125446432865,-0.2536448652394228,0.049762140394458795,-0.12794796057257773,0.3800581607525372,-0.3918681743210601,-0.041428908060578404,-0.21772089606687625,0.05849823969823209,0.42593530491626935,0.4955791205297484,-0.2875207765384004,-0.03539475996766354,0.14270235432368134,0.34641418279962005,-0.13602611646847093,-0.10707215542720813,0.03195320945998985,0.17737124782188726,0.23314596213411987,-0.8571918884007247,0.2742394048139913,0.4236464044045186,0.21627663103179545,0.3720366031489899,0.5054250166913623,0.45008092831678853,-0.6805584932357834,-0.3196859484860787,-0.3209451939600522,-0.2915203507645987,-0.07900148047899046,0.19254024113645596,0.235547235273872,-0.11542251237802892,-0.31075610977412116,0.42088284631718853,-0.029760926374500448,0.49547436069436845,-0.0372953062481669,-0.4736553838548122,0.971238320209189,0.3999588010453386,0.9397676703210444,0.3321351200563093,0.007923230479335628,-0.2628897242000427,-0.4873137520697216,0.015627516990131977,0.031915349958409445,0.06631169656521141,0.14442840446655644,-0.1366928511499878,0.33706210313803364,-0.09973617201682518,-0.8691279176338186,0.18061919487923297,0.019105745056684876,-0.12960880453708332,-0.16146436824596336,-0.3780765385869419,-0.12379494563024117,-0.12950360164165708,0.12702592698205734,0.41071539013695973,0.36786601473029024,0.34792961936946026,0.1680148747165693,-0.48906330441714746,-0.3011133346538261,0.03736853795204695,-0.06691554948410472,0.036536849679787486,-0.4297216874610918,-0.07238203154526811,0.435598510984126,0.7063876679955069,-0.17927571082300678,0.3611932652441665,-0.03524680552677194,0.0427620844128087,-0.49964419088477463,-0.2653049864882277,-0.1154392924850166,-0.46666839102005453,0.3444718735068207,-0.01048189268970134,-0.40829529523500085,0.2116180745881537,0.053365625864083936,0.34698407889358707,0.16351959679709918,0.1099669355830607,-0.28030332419234677,0.47591847430582557,0.2753304611490864,-0.3932745715450421,0.21539158331514377,-0.40989630592182136,-0.02204654539988524,0.4605441250104214,-0.3258171156309011,0.048350851016930464,-0.20777427795225523,-0.037993621397637185,-0.14453545488241482,-0.38937846415249006,0.17184119137585133,-0.4702536732343959,-0.28602445479053684,-0.06350025708004385,0.0900940849612516,-0.001621129762782315,-0.3638130102324557,-0.31413379331820085,0.13681908155102884,-0.3819943543772762,0.696822381342766,0.2894015015679262,-0.08358801097846694,-0.2252591983045283,-0.04880448203152286,-0.3757536116561918,-0.3644843030555386,0.03658495260637862,0.3027629100150558,-0.0017805025551337179,0.07647867879312042,0.2446419556281586,0.2877673689848964,0.3512590541506047,-0.07753365828634713,-0.11748694124071102,-0.46564920908704704,0.48576798495950824,-0.325299939591907,-0.054836431032118015,0.6733654918410376,-0.31129233969067893,-0.18077819486460237,0.5233789190131425,0.15405471285832079,-0.3222247147792428,0.4760975180363614,0.3902532379353946,0.08668462153886229,0.49095523770665134,-0.08713805003343873,-0.024663905066045343,-0.11970452114246208,0.22237642468032476,-0.3167718897224374,-0.05969071737925846,-0.16038452792790792,-0.36411382332905645,0.05925287582919076,-0.06578626043386973,-0.27287088851102165,-0.3787978272795478,-0.3561901564994513,0.23922301195649864,0.19525761571733952,0.18299847902929756,0.2459729767525911,0.32203156971406915,0.34422835157232134,-0.33763080273348967,0.29335931644957014,-0.048063863464398955,0.448736039710306,0.2456580076714936,-0.30075265696111086,0.13900093024349383,-0.07680503670141396,-0.09342014637422183,-0.15111345998527162,-0.4938281272320677,-0.4713873493168687,0.27235520851195877,0.39091399624199563,-0.1858181953701372,-0.10347509329330098,0.4497965428250818,-0.029027345069763632,-0.10562865328581625,0.3354155462769147
0.09911376483695906,-0.406980162976259,0.3043920530285466,-0.0206849042349412,0.08778049454554475,-0.42938530554439824,-0.27824013702017564,-0.4233315130138867,-0.43378327052700416,0.15504643980864435,-0.37328625472952515,-0.02615027092690974,0.2537972232655864,-0.33318503335249017,-0.46580531861888624,-0.358888608638702,0.30192587181867075,-0.08288610886702531,-0.16907587639966784,-0.38339650869401004,0.4320087659754692,0.3904911539832512,0.49805867525055275,0.11781355293469195,-0.4016282462299002,0.16696274668147262,-0.17235759221265495,-0.1803307245960401,-0.2794245638068343,-0.0858644575086898,0.43128371244600516,0.35927309423175285,0.13688735338239538,0.48447182237474945,-0.37018086704822817,0.1905025313143646,0.23257473486226116,0.34560438634479845,0.2612530945662148,0.09393532847144988,-0.022926464076574934,-0.05625644902686244,0.07772459485362983,0.40719262547035495,-0.2502786627141383,0.07970266282798565,-0.27894817909978525,0.5790616177284849,-0.4284666178934176,0.3963836875098895,-0.26577217598160885,-0.34196551640314055,0.2857127372609498,-0.2591538965851769,0.16861719823561885,0.13384413908540022,-0.4098892306501419,0.298609559242176,-0.061287134880625094,-0.45108850352713453,-0.22061955492102187,0.1857356298993309,0.1585178411545747,-0.44663083275930954,0.07550170383739428,0.5013203032317702,0.47723980296551066,0.4682403036303592,0.1596254739978095,0.12753614548276224,-0.3505567317152313,0.0630586816911159,-0.5071762744070036,-0.08381529958511177,-0.026617782760626787,0.227442986251983,0.4317384856925447,-0.06473432790751282,-0.09271175591600649,-0.4232244900883098,0.4465105348077664,1.399455293998059,-0.352154370278703,0.08846665415038356,-0.06307819794560564,-0.18620626633208948,0.20409104955749977,0.19489102150224968,0.4888206115630342,-0.2773929502312469,0.012103890263938991,-0.21533686958963844,-0.43580352386535953,0.01897060115650799,0.47170132544259064,-0.3708895530163116,0.2310651749572416,-0.4558836040570271,0.27636829671505664,0.4278221254199047,0.46297872143087937,0.39185360005675185,0.1393534241082775,0.22493076420119343,-0.4587229995008316,0.11710416201244092,0.3245919395486917,-0.3880835593405569,-0.41237579573867306,-0.30499389216828,-0.0008495082421740067,-0.48012015165888017,-0.028339405500115687,0.22074530670359638,0.1015651663229269,-0.1211655068072858,-0.46607371234116085,-0.4579508574081268,0.0030417156041618377,-0.3191221383851331,-0.32047539362853267,-0.3873206947305716,-0.44924717279792836,0.13629263617244244,0.2517272678685017,0.42715859993245925,0.4708444015345434,-0.08797499401969286,0.21900077913518612,-0.0953580253649567,0.17221756699034568,0.42579239488452275,-0.4424515050040642,0.39614558929719185,0.08979857044790263,0.5290976323058896,0.2816046871806349,0.062300574788029445,0.2816027138329907,-0.20073812221127996,-0.19684301810844923,-0.43935598146665844,0.2857926099917477,-0.04131686566746689,-0.3007488012938122,0.04962626623269751,0.2891537252014941,-0.4568350828682734,-0.0010616913489641052,-0.1969367063617378,0.33060227477074405,-0.4561063036458392,-0.3180498100133094,-0.06979622202413256,0.35416114885436256,0.23890507573175265,-0.24050768634878428,-0.4436050348679958,0.29559473335585296,-0.14454125710054902,0.04745467869444038,0.45567890665078403,0.4169926647225678,0.3256556407144878,-0.08047362937868052,-0.2726302347591347,-0.19745855944985027,-0.025434510044040716,0.13926041621645074,0.13261290203983986,0.14770342923334634,0.1592811824815978,-0.38879640826751816,-0.21603491275701395,-0.4259743792348159,0.6399686352541554,0.4986154027240263,0.3822813036452797,-0.08660848808399485,-0.3472121300697899,0.09192539576208054,0.12533366239566676,0.3994873519962362,-0.2276469157072227,0.49523441252485334,0.3500710492543581,-0.12021913046543409,0.3615021671332282,-0.2972794039525954,0.4890166672147756,-0.5111817017911977,0.300253699941645,0.33859251801517726,0.1900917333220155,0.4516990232912921,0.16368485617456166,0.11277744073060303,0.6941651204907711,0.13456428982958413,-0.19534979174894768,-0.4836489591973501,-0.42153058652590897,-0.37482556032626,-0.09275107549252778,0.08944250637835323,-0.08323165470622815,-0.46542679310327223,-0.32199476276263655,-0.47918938041766385,0.3622833766862029,-0.4223458940946821,-0.28397116009726886,-0.2945563886388609,0.4037515174690024,-0.05486526831896188,-0.3098977878638936,0.1288440621853204,-0.03795420967855572,-0.19043891755167247,-0.42425849436643437,0.5021137516045319,0.39477387174374357,-0.11408403363231555,-0.14836447277509743,-0.30626101909685055,-0.2396060297467964,-0.1083294294736119,0.3223370049335169,0.5462268848978754,-0.24025081314541902,0.4802207097067546,0.3680251440377011,0.4037830098189332,-0.4796996549476673,0.39915358027144954,0.004598727497077059,-0.31932642779304,0.028120931551466496,0.32652605436186927,-0.20748777303963442,-0.4742193287248043,-0.06041575772970199,0.31088149659083864,0.5985748168843935,0.059014867147451015,-0.41029725162602787,0.32143240751668073,-0.32391559799467917,0.16308560217460324,-0.016543940112739575,0.4428984693952651,-0.48207775663793434,0.05627660046227493,0.1253891693106223,-0.3598836497796499,0.4023194508061034,-0.04495121837064177,-0.32271404809162374,0.2707298642684562,-0.42205457247394895,0.017612304522902467,0.22254828491677744,0.43715890548167674,0.2764352843714968,0.3523366493378678,-0.4094195193512174,0.15329556237347644,0.10664337391885433,-0.04655921851238976,0.3835629012760352,-0.0734959877495575,0.4978654782812306,-0.020150432952858448,-0.20110657919912348,-0.001186753356029978,0.02138646562731683,-0.012649277357833832,0.2821956924007915,-0.4611261109277203,-0.1167620902106989,0.35923082277809293,0.2839831094222182,-0.19351003604654166,0.48289402759680355,-0.31602251516321955,0.07840732387805044,0.04274345300315215,-0.052186753374966574,-0.2790692729048439,0.07946188236484006,0.28928773860964646,0.09757135558574148,0.18349558166437918,0.3892117584952346,0.007269883059841288,-0.30443266046185413,-0.19849000143000528,0.23423602509415026,-1.0039328884750423,-0.35933766221538016,0.5495392910704858,-0.1977226511309844,-0.01757460136982897,0.03919624350977233,-0.3151334673788531,0.04752338519707647,0.2395188475380691,-0.22567663817025116,-0.06453206258195358,-0.4500454044830176,-0.44207765327741466,0.28279089146285724,0.356136762680774,0.009080734238574533,-0.1823211444735415,0.26045789386091417,0.4117784834380043,-0.11561017797100318,-0.017379456407310843,0.282410518509008,-0.255224125581877,0.3510327301621755,0.10764356218978037,0.01300934350488614,0.017517141882662245,-0.003709692420569562,-0.08400071989176727,-0.30519059779087476,-0.04746243984246658,-0.42916547548499956,0.4242369230366666,-0.35411657539744607,-0.4205700561019577,0.48148691447089315,-0.04908608146777893,-0.377348049609058,-0.23436942507397904,-1.0948926112576784,-0.4828124955371679,-0.024707107562506433,0.13468971660742232,-0.13547872570106728,-0.16279942857730667,0.007149178001285008,-0.15740389769178437,-0.42897724984293145,0.21554445451735668,0.5910212020130216,-0.4763348089361475,-0.16622703623645455
-0.09637127723842005,-0.13753523612609064,-0.09798760588123968,0.0903661617869986,-0.4566469390693409,0.42160765248183946,-0.3610065192085472,-0.29440766748623226,0.0537021158750661,0.0010577081840981615,0.124830901910937,0.2049408271970874,-0.019447054483639696,-0.6431139485902434,-0.24361997873663335,-0.5571623213914391,-0.14131135955719196,-0.30887493540344874,-0.6429448094661716,-0.3151875446793059,0.13927420194978063,-0.33000559256810136,-0.4797058969721902,0.12461492688016476,-0.06803342465750073,0.46204874475109264,0.03893680123036694,-0.4424078572021061,0.06198848135115353,0.27366515927356555,0.00037855215064211737,0.10097011916737024,-0.308463777546301,-0.010547137341512238,-0.4229625757566724,0.24213160494213073,0.181860667834422,-0.15052738649921418,-0.4350758300785886,-0.2589103489921366,-0.0588479251605689,0.29973506873615663,-0.4721786150590358,-0.1162782264868707,0.00854640557765368,-0.5210773044675875,0.7574278140741665,0.27148108715740055,-0.5157771702188839,0.21910937488035614,-0.3400136051642915,0.24832818534240592,0.21933191537713562,0.20997594332087754,0.24818515433733512,0.49750074263226035,0.10890529440889651,-0.18935565394567594,0.2897571549998374,-0.0783632202561602,-0.26454433983426673,0.31479556106513673,-0.17588640784990112,0.30822104002111717,-0.3146736062144484,0.2024949615083117,0.48704152644574833,-0.049165969152527224,0.07057806651082996,0.2087298934142178,0.3144663316505245,0.1335250336032152,-0.3592998197002857,0.17322171849267098,0.1211605419166429,-0.26486182650748347,-0.4270402652732603,-0.2978970600410434,-0.20974132787193792,-0.3621515790421515,0.451190320642767,-0.42794104792041376,0.17249389700367992,-0.02256730857808108,0.44909546377484855,0.38386347925061964,0.37597499725902783,0.09036966630265197,0.1732619647045747,0.07260724289442973,-0.36601471459233065,-0.07463652867152795,-0.2802036097666998,0.12707897564715104,-0.12396736024312359,-0.4132375235396222,-0.06232098896650435,-0.48108035073739125,-0.3588367328516465,-0.5605321824830847,0.34774831157467667,-0.1068305577777865,0.021969413846412846,0.33113469325669026,0.42998002293200244,-0.03894203273755364,-0.5596096764819842,0.4381838261392988,0.14105821939481925,-0.2070463022127843,-0.4380390195265036,-0.14276986904467562,0.2823018177835537,-0.4606677387282275,-0.3106935390094838,-0.4089256527845371,-0.3769473151985711,0.03267927803711162,-0.27092622521418164,-0.10886131306218134,-0.16429556040488846,-0.11607143547065532,0.004534202664758923,-0.2112508871755637,-0.04925589761460244,0.06288660416025203,-0.35482636978239795,0.22214320047631894,-0.46445677518754686,0.14834933174659953,0.3302491903298329,-0.1877796384883734,-0.1362340476816379,-0.036548714373418,0.3217616792604639,0.07669393828025249,0.10980747994321816,0.42586365154227374,-0.5070700149894026,-0.15330169559276158,-0.15188494111365497,-0.15242625300830728,0.44757279804234074,-0.4265229754270786,0.033547210311779194,-0.39095227809393385,-0.2940297417579063,0.1368711644004528,-0.08989359477564951,-0.43074179470653806,-0.23977555889943636,-0.27566780744300223,-0.23327680344790866,0.1248379569314106,-0.6083118787913501,0.23131091247566493,-0.1154883218461522,-0.4814348757764991,0.06138534077440052,-0.24391348559759923,-0.5246786823171885,0.10568273308109759,0.2744811140441094,-0.3875854387426775,-0.26703440248410487,-0.3235723379559734,0.055684403829967755,-0.23976389649440275,0.0512451267032563,-0.27958903112548195,0.4585847057109077,0.06582511054352476,0.29809886466457247,0.2873682848967961,-0.4205508009502951,0.11007942669743584,0.03526832069682205,-0.24141996254870876,-0.2870196680086653,0.12118230625392487,-0.14544103222307325,-0.07431881458035895,0.46428667185889905,-0.35861378020000984,0.6457120944568826,-0.31315753060110224,-0.35399460005798533,0.397031508948071,-0.24907322996650458,0.16908090485933547,0.04131514381841449,-0.2750527685246973,-0.13021721992413113,-0.003907251636840012,-0.016883683890066004,0.2184135880984641,0.06773235611093364,0.3623269193188247,0.3142761594641239,-0.4006645535379389,0.185146654857735,0.05934923885675153,-0.0409287921984145,-0.01937518454287865,0.3663541911987533,-0.9801659710215246,0.1670631186736177,-0.0850276412910811,-0.07818090856115519,-0.16840950292291165,0.35011609337620314,-0.42237523242895864,0.06854901942004787,0.19331286799427547,0.04293314887012922,0.09019515709475431,0.05849598693724721,0.6250091898279116,0.4798369300415523,0.31423893794043123,0.8476338827055528,-0.03494851037665115,0.2585482097284629,-0.48735115789265143,-0.4905385377267327,-0.4547774228287101,0.2247754220219801,0.4070742234223188,0.33991960040077823,0.3049711546864456,-0.7983132548875704,-0.10294620309243069,-0.2350306156177752,0.15359439395655242,-0.0561879041574787,-0.11502394292747796,0.370568240327457,-0.4103587316054532,0.4821272696447779,0.19821954099386788,-0.17054993006577407,-0.3896861271616373,0.23338507078241516,-0.5820727316028294,-0.37261161685979505,-0.13940785065597955,0.0013361902197160608,0.038937768186787396,0.39334019155893046,-0.2249123645656973,0.41048760103671994,-0.4230892609026512,0.264792621525618,-0.3376182971922714,-0.3409243217183504,-0.18023275872941438,-0.2906754698879243,0.20832137755422261,-0.3686798626971173,0.05641665630594249,-0.6461294124461069,-0.4188575061360092,-0.45035299542744,-0.4463653246218184,-0.20896650939667585,0.3364737265232939,-0.43937104152847145,-0.38896982696909177,0.21761991272138498,-0.03797632002437421,-0.19541092169987243,-0.4081203043094674,0.04299278053846958,0.36412172837112566,-0.15791765971922211,0.43591207565535117,0.441119702411099,-0.3482198189592523,-0.49737996948456425,-0.4539083160512628,0.29134261647965193,0.3322317491576044,-0.37966146966928144,-0.4522037568636458,-0.3555532362485825,-0.4411900389968382,-0.0705786611646778,-0.1552743081728073,-0.2718605532744845,-0.05687782448927029,-0.33658886429509605,-0.38931947892620533,-0.4428101523650836,-0.31810923684853254,0.05791364336303227,0.16726439774792923,0.16823575653747855,-0.45066275279013834,0.5937098157876098,-0.3446101820858839,-0.4023108741350832,-0.12491718462900733,0.20650178674953776,-0.23724258769094847,-0.5475822825471228,0.4223999689473452,0.24187816177893692,-0.14936772640472162,0.1620599974680592,-0.12952247538385728,-0.14108711808476287,-0.09889160999968952,-0.0775307062192751,0.45188102587116974,0.1836150213774754,-0.10123737085481005,0.23792124217146782,0.32823279397027083,-0.05163051309477826,-0.20218474333580957,0.16957904357807374,0.05191283935924742,0.4578213915593129,-0.21016663609320185,-0.015101989793454076,-0.6272097292781923,0.18990122262812636,0.17953135443118085,-0.08110874820187727,0.07290396689020887,0.10728281741144184,0.23783232673489713,0.4972553319899733,0.018032811952449324,-0.4534470740071892,-0.49440170172094555,-0.4667830607001084,0.9408664276456793,-0.00814543966420618,-0.11057510642379954,0.38627605691144795,-0.04521641999270443,0.3125341311767664,-0.4027081877636255,0.00209203675975717,0.032703341859167484,-0.41975565373912754,-0.48932682788166726,0.2574748935515758,-0.07998759998419876
-0.07619051055157727,-0.35384934467440016,-0.46279429412438156,0.27744192373073284,0.040935553870873775,-0.06788380291960179,0.18643237388065262,0.29552173770060364,0.04571780204567825,0.5251297512104134,0.025531403325336464,-0.31915602364721185,-0.3391218522532401,-0.28247418669787294,-0.14687811868130976,0.053480258353620996,0.1541556199577401,0.2020777052268863,-0.2846580253049497,-0.37036507940561014,-0.3730060576414101,-0.3724510644715514,-0.07885114795722735,0.14698825079703,-0.052062304403236,0.014585136311086525,-0.31830033764375376,-0.30590420418226966,-0.3555458878430418,-0.20914513326549136,-0.2468077983898641,-0.40777152476913364,-0.3009484826737253,0.19778370852494823,0.20059704845367776,-0.013515202834442585,-0.20548032156884885,-0.05536804000646725,-0.4630009711308759,0.08230641229842459,0.22858684343876537,-0.47527825380559985,-0.23414022767336753,-0.4192402536318605,0.10903346845576459,-1.1421406070122053,0.6650720487164661,0.5610708266186195,-0.4511512618634611,-0.17500387801708878,0.4558328347546437,-0.49282525430947993,0.23444858141855404,-0.34291993038950336,0.035756645978120276,0.4137810166754045,0.4782384987978697,0.05062793836213249,-0.15351722413937738,0.16187944209352925,0.15315893582229498,0.34948191907372594,-0.09798295305125963,-0.035264076697004515,-0.3620498493375675,-0.05944137328881297,-0.09968110640165848,-0.3417400605627963,-0.3807894397208998,0.32806424444870036,0.0849843384288483,-0.4160935998145095,0.04573840167952266,0.8490480316134067,-0.3114885716001428,0.18571078310755953,-0.37141683191092695,0.5759395141626713,0.0012959276953047056,-0.4660576767063119,-0.18706882109503536,-0.577823431992475,-0.38955629915881734,0.03580583221119981,-0.07879470871749257,-0.1608672153039014,0.22564507105426773,0.23156996782427286,0.1335811642865308,-0.028789374674758256,0.2985895485031158,0.34390847490188287,-0.25087616363892756,-0.19865772708203047,-0.1723460875982246,0.325140508262972,-0.3444018811195487,-0.11398133340778624,-0.1398780780395809,-0.03203899137777303,-0.14953962506617874,-0.46294420211656817,-0.47130112459395845,-0.17082917546894927,0.3536338839974772,-0.4410312663302484,-0.5550837290979954,-0.07528486516491655,-0.28230007132965096,-0.01754544213038688,0.43617108599676313,0.24909489673565632,0.007221342911643823,-0.2884372312734277,0.030267442216403668,0.11393153032977159,-0.219666432755731,0.059564445632758825,0.44717726124811225,0.0024422485126404,0.25110702344270286,-0.14460433614793347,0.006288991952960213,-0.3880891426310143,0.02610151114837585,-0.4305323246432982,-0.41426831838137956,-0.1614487300959295,-0.4560820153942418,0.2694504774999764,0.10141010538078933,0.3754323105836534,-0.25957458180033444,0.4108461151495321,-0.20124201956915078,-0.3950428195986269,0.2525036665902589,-0.32535761693229737,-0.2672088585571801,-0.4690353821192463,-0.45508388499061453,-0.29045007869105366,0.271126710067797,0.12444882148891305,-0.11874180002556929,-0.0852173795024959,-0.2984064172669939,-0.29887561514215943,0.3946153257910304,-0.26579915942657867,-0.3226685996587825,-0.5859087297969999,-0.4823750151899792,-0.3167108286041889,-0.019112525544450327,-0.1869864590981064,0.19357956651380023,-0.04163847637232052,0.16041819660753784,0.07740817608966427,-0.27940779488229683,-0.39390224879677466,-0.4824745808717642,0.005945584165087933,0.28284676027144495,-0.18409506023261762,-0.43653748395346853,-0.03355206368810875,-0.3891018654287901,0.08217756951533986,-0.2595525703788036,-0.09115966370255904,-0.23265162385415028,0.2996126874432885,0.15594063264876917,-0.2611957545056246,-0.13167844641154777,-0.1582899728946627,0.12179453644185932,0.37971038172316873,-0.2729307827830879,-0.14486238391137768,0.38482992239862346,-0.17249162512265512,-0.7535732398414089,0.3236626190827407,0.2684325076737599,0.1475751754967659,0.34267450092912716,0.2699645676731119,-0.144993405274685,-0.3517525376677467,0.209422697691809,-0.1397583248969736,0.2557392527447241,-0.25657698070062973,0.05972377514652516,0.22508923101423434,-0.43289612014483836,0.38806520771898695,0.12525762641966573,-0.1478232701419873,0.0002691690979615968,0.1364875115669141,0.1536489984183625,0.2654705105807098,-0.020840350032146477,-0.7325480796368713,0.08850522876757085,0.4989885818865975,-0.4458014214374808,0.3491126384558354,0.14666189803502563,-0.1022142004303464,-0.19031003593049356,0.36886572584139804,0.07781242373975936,-0.71891404668145,0.02315249638523099,0.866329154484188,0.030207975268317335,0.396736861667419,-0.4051939049999201,0.10677456654502918,0.16854817255387122,0.015830666027161072,0.07519131562112547,-0.46280849816422176,0.2568665628500709,0.1412777966602998,-0.5434653256156136,0.20085744965012345,0.28702563586966895,-0.1658732349630834,0.03986528798944144,0.19672358948804058,0.2791622544867583,-0.1647410779388099,0.35435513783283573,0.42233620411483297,-0.46051655562869914,-0.2831959248513577,-0.1332557415298548,-0.1642587421145301,0.4195262376766155,0.21514539360711393,0.0763469097025622,-0.1502132430610933,-0.17919024018745264,0.44481885583184977,-0.325514406760474,0.10039691942274007,-0.18969925866076764,-0.07768628527578517,-0.41405057871649265,-0.3960413265071118,-0.29226354955479705,0.48706775535380653,-0.08804717597949481,0.5261082680794794,-0.3211821487841541,-0.25366021484992324,0.06487428482388272,-0.36655841294744257,0.20529545785030434,0.14206074161554452,-0.20661200345148273,-0.4005075214199403,0.4336384037468491,-0.36946274229437515,0.13236930743549952,-0.40320983534823285,-0.21548947055185166,-0.09362637027478835,0.03624580531576684,-0.21460232261930368,-0.16054928096775867,0.009807537409179274,0.017452785329949455,0.20327125931969703,-0.40151240509105446,-0.4086312219027897,-0.13478794456486315,-0.2624353501522888,-0.47542497175422116,0.1752377094695924,0.06329717955843223,0.3770215993997532,0.25932607679565733,-0.21083375782067448,0.47995122475473656,0.483241775297209,0.3480492340847702,-0.4454856132234053,-0.30062247970476735,0.2219793636109565,-0.13231384801499355,0.288218343043833,-0.2971008694372332,0.06902071959148814,0.27130087683381093,0.056342297887969864,0.447720269790612,-0.10456328696612635,-0.5306834867559413,0.315129265364501,0.01806207571417252,-0.2809322271829863,0.45358839175025617,-0.24659386609002612,0.13406068219463751,-0.36779887049170595,-0.24953032428020253,-0.05206632666686776,-0.3279819757910107,-0.4861716560266931,0.1076880342646317,0.14186379418284914,0.15423296768137718,-0.2774161043197521,-0.40663236902335054,0.3941456941808831,-0.03202371357227452,0.32134829220624916,-0.078131303879259,-0.2133884680795454,0.17654605192983874,-0.2333837462301236,0.2558220896181982,-0.14156656963851488,0.4676329678406426,-0.24454544486941843,0.03637944591616474,-0.1117533620887404,0.05310198390887266,-0.00654533806536709,-0.24403884417501542,0.6696337168948816,-0.3356679291171952,-0.4813560205863558,0.08798525133707204,-0.16938115177015703,-0.09600442885764057,-0.27269693589625965,-0.35182495703214656,-0.39163211140622783,-0.18298635312734227,-0.5268034411661419,0.11795944883784906,0.3703024619097036
0.3480416229065281,0.3038071626560425,0.09309675327777706,-0.4796012699488783,-0.10308680344866869,0.43685058455812587,-0.28562071380875986,-0.3290858446808297,0.39630958586150894,-0.2262587574172044,-0.42790518531722865,0.2679647625160475,0.2506719218201102,-0.19377974993247044,-0.32858203570852224,0.2014759684891583,-0.08504377808240632,-0.41069859090626326,0.38357005143626344,-0.17590800850101654,-0.2499612097038613,-0.13270247694667447,-0.39717419570615753,0.0661463757320979,-0.3551218568858166,-0.23038906669471737,0.02944900454883788,-0.04653088062576658,-0.21156999792948655,0.2527668062668161,-0.29785379810291346,0.22581915630847227,-0.15256349554534382,0.45174280384938176,-0.4347704088293173,0.11490161240155822,0.15609330879556485,-0.2555268062922491,0.007842378019506904,-0.15323459525242128,-0.3604365003514115,0.04765688337668972,0.453960752815031,-0.2922006555542362,-0.080810006686867,-0.15582163987148256,-0.005117346487222807,0.5260958723288398,0.22217418677833273,0.38274283549114296,-0.3721546435472211,0.21773365170106615,-0.4347009684068754,0.3581128143415831,0.3116364972976718,0.24641992463406362,0.11308986067133273,-0.24255568433694802,0.2262291604806284,0.11271898465406942,-0.1624359358939546,-0.04472465758379374,0.10794468932271792,-0.3845133518577759,0.37624647518200954,-0.48921888687197185,0.4546689137716444,0.3716768047917029,-0.37778794877575067,0.3570820211071538,0.4842921475302774,-0.47765488507104514,0.17278259537129315,0.4688526692335677,-0.18816784524713331,-0.24236740385606967,-0.09443425111029516,0.055830164043047414,0.19358227774676642,0.27126287450597464,0.034663956948366714,-0.37950958594798667,-0.2763152150207276,-0.37683940125400794,-0.41694379273080234,-0.028508413071149052,-0.005053723685371835,-0.09069427967924737,0.24012115962834132,0.39873500368434717,0.4066130447804141,-0.36312074924980925,-0.022888003910897174,0.11687928867997398,-0.13247224790185672,-0.34862625662269575,0.3325876279339179,-0.5888682466043978,-0.10929562648304594,0.21813490030094193,-0.24732882418158744,0.24911402594591792,0.42866169546257055,-0.17181759981915656,0.21812072404186766,0.44492520316920336,0.6434811623718576,-0.4903708401875263,-0.225257792901697,-0.01825142123222317,0.19895545256139274,-0.2298631600162864,-0.4784584498547489,-0.2648510925164571,-0.4965824810870459,-0.3829339708978611,-0.10426568969800445,-0.055817830973195176,-0.1891720138329425,0.4524517777315674,0.38634043266126167,0.42229259013900067,0.030092384294586022,-0.4305484823765181,-0.48192186827948275,0.14997160595870646,-0.1566423183683705,-0.19224042188361512,0.358372882215041,0.2925957538124818,-0.05017945056773356,0.14778352631851077,0.28362321069271773,0.16779290070635988,0.09627568197183245,-0.11222966622751296,0.20416729863991046,0.19543382191271325,0.42202359266421885,-0.4808604915506836,-0.345876909042402,0.4661818248024448,0.013358056701480594,0.12598014597281845,-0.019636566187025386,-0.15567900822737848,0.09050581772999669,-0.06073386819084146,0.46686203325207154,-0.321298655991757,0.2818935905863248,0.02041166292093251,0.31935526181908835,-0.09438686178498151,-0.3171144383546007,0.1970089266970886,0.27174519038251926,-0.053305217583144646,0.2539458946562741,-0.3633222218812414,0.24740738557531022,-0.008315996479009305,0.46090870006575085,-0.4350793700520728,-0.21859054935207467,0.292890386590938,-0.4990682091540664,-0.1228794982826869,-0.2847099275009488,0.1970193163076624,0.3860953124606909,0.36360840870207756,0.08863193776178513,0.225560100477824,-0.046306945102136114,0.539466143461374,0.4508185289929003,-0.206606348782882,-0.43587083672192084,-0.08687532393631851,0.2912246532625676,-0.21412517989487212,0.09593100058781209,0.1795719508225982,-0.6225622162217422,0.06172649105731719,0.47562889359805294,-0.4655051132348323,-0.5693131153694013,-0.27041506249429254,0.21241478568847924,0.2420083017814833,0.44604746056145966,0.45555949663400014,-0.06418028562282474,0.07374949302895242,0.32225082099484015,-0.771801943359839,-0.37233572484323296,-0.5035515637831649,0.23509618959813333,-0.15624629330505438,-0.2572901516606926,-0.5162973946861309,0.43566850991516654,1.2191397539763764,-0.1425189149109213,0.20341940097370262,0.07257055411556623,0.46828292021068496,0.1265358696812172,-0.4201721228318084,0.27746734927009414,0.2105413542582182,-0.08426077627417938,0.3055400915491914,-0.37162604604214117,-0.4006064263980959,-0.3131343288562232,-0.3189451817541034,0.014941807799211537,0.21078970938391686,0.08760791188402074,-0.39546539350472293,0.4539152885120572,0.4549668390364775,0.3569125798451648,-0.36417632589857146,-0.3057060307210204,-0.006430658102320181,0.32177896129498124,0.1295761282459173,-0.10546128497755013,-0.4228853677451105,-0.2160713565132056,-0.06264622326302265,0.20241556676364375,0.2423532658157012,-0.3253182250500347,-0.2901099183211027,-0.19846969132122624,0.7049345300527909,0.13276317466581353,0.3459922038164571,-0.009634474570701651,0.512538725775321,0.16475387302589878,-0.027476862960319197,0.6722270563608888,0.4658943681477706,0.4077662312039418,0.09168137652905131,0.36683623827959,0.46457853685076256,0.367471364089922,0.41710578044288077,0.44192195754034475,0.3300416715512645,0.3547727557083592,0.1458559221017619,-0.6711129798564266,-0.024506124052830053,-0.1349128595927364,0.22856285196487452,0.4906150796349632,0.13759954335830263,0.4240893782244225,0.4094105563916645,0.3658861852901314,-0.2701558119836328,0.4512887924964278,-0.023165612410266215,0.24468022152260804,-0.45787528222935586,0.006649593507269722,0.15044480043614294,0.4777210641620919,-0.3610705251949522,-0.33195189287683946,0.03956219690449303,-0.3705298892225668,-1.3126352162047357,0.46892381629074975,-0.24793416628013557,0.3261919387081935,0.4822401528448028,0.4899282624328877,-0.3527571737640888,-0.2157520252093215,-0.06124876562994905,-0.3052051937574636,-0.1566712675076286,-0.2761600383726512,-0.2225579620804758,0.22899180764033064,-0.47818483067936596,0.4179692399256665,-0.4481681537548457,-0.3408669846433188,-0.274499238128203,-0.3774678940051557,-0.3170589165572639,0.10280535547983509,-0.40232894199121705,-0.21898404311241584,0.31547759873217845,-0.0218442667276257,-0.02526997932545933,-0.04870948873072975,0.32693612510453757,-0.016480186545238865,-0.30176551818602165,0.1839825154835463,0.39990985377005184,-0.21022713473003515,0.21938706942897634,0.2170543885605949,-0.36981667343711316,0.4886498982195175,-0.026049488675549893,0.07435509238486254,0.3898747141834081,-0.3961205934350597,0.1304650979094285,-0.18209562274414168,-0.1674540952048461,-0.17363750175208048,0.32365025405311376,0.16335230265940562,0.036072420071782615,0.36109612137582714,0.2970281012247675,0.2082108812950527,-0.49876893053374755,0.2209056727549913,0.3875689151505363,0.4399360257582591,0.006462377990746638,0.3016481458718971,0.463808402245546,0.21171928142694071,-0.29017133232129255,0.05889889939171788,-0.27979867724869933,0.45932715187523837,0.30829117028406555,0.4223436892643744,-0.1000193220914954,0.0007489413404100478,0.397420325462276
-0.03402052419680779,-0.40129964828259435,-0.259826553432269,-0.18696671151829317,-0.26020282180811793,-0.009918134687061824,-0.23324829986615944,-0.44624902151509355,-0.03879786975247923,0.2617704367823773,0.42385488767065627,-0.20311081958551702,0.04353835887640253,-0.2665755937951614,-0.3925476914902912,-0.45178824970142656,-0.41323133705396126,0.3666428644499802,-0.43208895105225276,-0.26322461744573583,0.472335300580049,0.15635756128032047,-0.0644611637950886,0.4214873743428935,-0.11600957363790113,-0.22046756055108807,0.23516531500676538,0.47154651985648643,-0.2602578171027027,0.0355014064269343,0.06279901740823159,-0.3937934517346404,-0.14717239764361936,-0.19226201743801855,-0.39084165436325824,0.4533681335748265,0.4424566837814844,0.22901988045477265,-0.4197249252991285,0.09725589464743672,-0.24980549011384154,-0.3775921499452253,0.39603697772542656,-0.17221314251194766,0.25470153432198345,-0.05598033659544614,0.11382402737094117,-0.409292480261023,-0.3840601591170858,0.24294282958942334,-0.43074341858159537,0.19884123090722203,-0.027053451857182602,-0.31509921886911174,0.39178196739557863,-0.25609038547328333,0.35119852604897056,-0.06767859493592039,0.06244458771858803,0.391490892350883,0.12799894172504123,-0.10262396717402567,-0.49932887595349396,-0.21966118819938796,0.020315666471708106,-0.28135342867432755,0.3510711879633643,-0.19680355634070243,0.03554817612302375,0.27306750733941965,-0.22659756126650438,-0.04676095598323177,-0.35444140061383267,-0.4527403496701688,0.2246957342898832,-0.388430728498511,-0.23433728503488438,0.04435427247897104,0.08013652638918359,0.4785262139430416,0.4612801065866993,-0.12617531666298917,-0.17195817337917352,-0.016932951726627076,-0.24441810806026798,-0.08637440128497503,-0.2391806296242302,-0.360373110771955,0.23712286836467378,-0.2344806632155334,0.2981597670717267,0.1701618133347202,-0.16589301946552512,0.47338744318102377,0.18157230118475193,-0.36934461618120795,0.29122050322485726,-0.5015728664156105,0.07127686674067021,0.41548289973708397,-0.49206170192186865,0.16337527907786598,0.2405489589696394,0.052229806179888705,0.4035480157304563,0.043464475707384605,0.11870768859406589,0.4199625449538148,-0.36175394443610404,0.48821985375627,-0.021737961352699668,-0.0739172173692618,0.1277241914223899,0.06769482522305703,0.23727442178217806,0.23560499701398246,-0.15933179386034158,0.27069345680872575,0.17905187348234214,0.4134470282122474,0.1698434117195516,-0.37458955147435885,0.2279331884308623,0.13457544618188555,-0.4146034590741272,-0.16485901449476642,-0.1619392279164106,-0.3795041898018676,-0.3760815450537918,0.20403126536668126,0.4388514450887435,-0.16098090482724287,0.49856420289848274,0.16065387736232267,0.2027564423741076,-0.22819165469627464,-0.23849124104809116,0.23321403074639002,0.12414017119656665,-0.388666073577542,-0.3706064237576417,0.11441411717774747,-0.016198887742080625,0.23964555325605516,-0.32617220182138956,-0.4587789096802376,-0.13805301931018213,0.12208649871715316,0.2168936777441211,-0.05551707483604219,0.36135611728016426,0.005527332990187751,-0.4499255406713737,0.0487420520541469,-0.2669933981658546,-0.19080462175376933,-0.3927547107531467,-0.42918096627395586,-0.298528787121501,-0.21934973799426905,0.00046290795360121213,-0.46714370931311694,-0.3760332200221312,0.4486370793358856,-0.10292816844085655,-0.0613919450696149,0.35493189294912403,-0.4823511119197831,-0.15438681181759473,-0.2670509337989681,0.2726803917735335,0.0638351296310814,0.14565096505287212,-0.34176892335727216,-0.18914111643619289,-0.04120238017167655,-0.2946647305712167,-0.39623500123015964,-0.2716848709551919,0.3588330059636012,0.11423497759918053,-0.13323395766635682,-0.11243347311486705,0.43947962932230344,0.14611651923217214,0.38764420890068374,-0.3798839973694045,0.24000858398580754,-0.25828156303297145,-0.04009207827740561,-0.3590961124018535,-0.21004199481463823,-0.10182837104720892,-0.0729072322474182,0.18711025962226802,0.1279613955183162,-0.41172167825260264,-0.2596052699946226,-0.4394779856965614,-0.08202155171001721,-0.4606400315351919,-0.4359232838885522,-0.21636819547712371,0.223694428928278,-0.12297320482277226,-0.15996789460878166,0.002641209416837572,0.41459342779582675,-0.3577502394112372,-0.28651539911990265,-0.37449046969701283,0.14124783739915697,0.0532707744652831,0.451210991870329,0.06672875048679905,0.4735506418726793,0.463345941600976,0.3836920861671274,0.2423111598381507,0.43915519749721876,0.356067865233524,-0.02950865433426768,0.21088585385218153,-0.08679860083137633,-0.3638181566028815,-0.09472468697763048,-0.34163449070764074,0.3034175692029141,-0.17210836209306085,-0.48721853162699114,-0.4615990091267698,-0.02702658275569555,-0.029685477542669647,-0.11259417847831923,0.11417705846873605,-0.29239973835911126,0.3444371228624964,-0.4319709224605483,0.34875074365167624,-0.36494495596747295,-0.4862996827819849,0.34888069833309265,-0.20570867153722028,0.22995036986617198,0.2886854381123146,0.0939107594939504,0.4393827198957804,-0.2890482104460057,0.4760628147429941,-0.4320974491242561,0.161452097638751,-0.14604684775891782,0.3298210175480374,-0.2399921406113853,0.45271819306525496,0.22979590617001205,-0.37725845270588027,0.3982447753256139,0.09923722276690963,-0.14498526660549726,-0.17205155776206463,-0.11432924623710021,0.17636822090220095,0.03314362184219096,-0.23187186199541582,0.45714680650365463,-0.09801268664305994,0.25467308708501235,-0.3156818931366818,0.04858479368263593,-0.45116457733426635,-0.4442697538506019,-0.12851732400407542,-0.4539990699987333,-0.329834530813491,-0.19577072525005246,0.3571160151131966,0.23608818498391368,0.05041162601914817,-0.11265238931719777,0.33805266925314575,0.31377933076143605,0.4895349154528439,-0.37443165948733725,0.4492068637882332,0.1296053585750938,0.33521571938540584,-0.1513653004402609,0.4737598060289696,-0.2073641348731108,0.09358205018938714,0.2305064795851005,-0.07515515810853791,0.06776756541648934,-0.2841974583086591,0.13767918997863385,0.3451417866896821,-0.2658966773059761,-0.2687138327953541,-0.04187772912026967,-0.24141334208802404,-0.010866922371198667,0.13101303710131063,0.21108311800388016,-0.25105193272108456,-0.3029951319176022,0.48939870489539256,-0.022802940261962324,-0.29994428459137124,0.4324692914467816,-0.2798333569194714,0.09188686494236802,-0.34029917215122857,0.4304618090425523,0.05450377836553922,-0.3528872786294156,0.21670283653907618,0.43773046100997587,0.1566444119732092,0.31649230355711117,-0.36166988369022746,-0.3842051968918638,0.06184581840631074,0.1238047438918185,0.28625202578315756,0.05425899557699169,-0.15641928785628278,0.3659793103067914,-0.371744510020104,-0.006658089275856324,-0.3316099459613605,0.40384338614186227,0.11869292989869182,-0.14159861254957845,0.12978151929881498,-0.23495293045847318,-0.4482169658027379,-0.05515147438927595,0.08725922997162872,-0.34916970369367734,-0.3385362318867122,0.1037274470835862,-0.20920376220014994,-0.1288355959363099,0.0570016053061218,0.3026491132674382,-0.04089318928886753,0.31399753485583193,-0.12793995627880392,0.2642663402718796
0.354442422959935,-0.33819562939412656,0.05364688411999355,0.5065919613449852,-0.0521105974558347,0.2124232625531782,-0.03909230373163654,0.19483874429286868,0.3038807778339675,-0.06855932245779227,-0.04274305449046831,-0.2060951809671949,0.4075210339173238,-0.3536000144095781,0.00983487486940401,-0.08994705072924197,-0.3238454671993398,0.40306833974192335,0.6086657520553823,-0.1372422297346869,0.37023249493795735,0.37097428703572066,0.26321580261440325,0.22857146137818923,-0.3720750121813249,-0.272122617935433,-0.3534373111452937,0.29307884950751334,-0.2643206613688901,0.3175870163709944,-0.08685868739432274,0.4417998557035583,-0.2982382199053771,-0.22809955345658278,0.2452120380340928,0.13198689522433518,-0.40353713139906755,0.031275885410674886,0.5469890477287362,0.057846179837127934,0.35060185451043835,-0.06408708449317058,0.20984162199544648,0.38503711418145264,-0.1654384907444384,0.3116696152231811,0.01029444719769413,0.3546824916091883,0.47443634012613806,-0.4241317103537534,0.3184432901839591,0.08277048215932577,-0.24047215309856795,-0.39010500884831023,0.2036741652491332,-0.292009040270128,0.1238223330837871,-0.27029205478520507,-0.4734747694941424,0.36733656427780065,-0.09117619782892498,-0.038365759218384476,-0.2697420077916028,0.38150640452237333,0.2365544815845056,0.272642225075168,0.19782747403323303,-0.3777575207065998,-0.45584219977924373,-0.38221813472513444,0.17285938753138486,-0.33152280331967365,0.021897588954996064,-0.22879201168505062,0.07285225517417088,0.2535305286609919,-0.407075321350445,0.35279017798317824,0.38199684694825825,-0.34086016998586255,-0.08566772618570173,-0.36003912917461406,0.13978175509360055,0.28561952604959073,-0.23316780305075904,-0.3211954259066471,0.2927494371233133,0.4208845775000999,0.15042056515443678,0.6824544411965261,-0.10604261493249434,0.3890089497851427,0.4259247619530036,-0.37363332524883364,-0.4838528175495456,0.06463347277801398,-0.40524985221914167,0.4318944070293362,-0.28724558476897016,-0.44988516285483743,-0.49537125518055486,0.07549190374043546,0.29300091894982916,0.10342502714033142,-0.34067507463514324,-0.353203773020997,0.25391345253981207,-0.1770833714702396,-0.41064702577160817,0.3218711359255484,-0.043585513578053056,0.005254908467754534,-0.19752897891129573,-0.3381218913587126,0.466491891212558,-0.008604287534591559,0.13872993946502196,0.39530469021846854,-0.08210303246391921,0.31845111911862284,-0.30597585288157236,-0.007071825443360998,0.3387515795928525,-0.37031578346249977,-0.2993081809007845,-0.14966093277568338,0.11927699066480635,0.2097194197099188,0.1733589424860256,-0.31727908066905214,0.1034582625817227,-0.11041468676092736,-0.46583244434631965,0.14449692483009177,-0.12267216936943434,0.2464451067359938,-0.04256413581333196,0.20986861994734998,-0.0037269659317023533,0.11000709841448408,0.1372020539577209,0.015551691474710302,-0.42696968120798473,-0.15125440727335887,-0.17273619477742383,0.21181118119920983,-0.10947608114672319,-0.16349822249371293,0.45322019301701644,-0.40602070127892614,-0.11198780883188887,0.21205983184537183,0.15745117501084493,-0.054492955168910416,0.3264068376699969,0.4570841324355728,-0.32105580358480684,-0.16173321749129366,-0.20845669183557267,-0.2313517863680278,-0.08512284972292841,0.37109960802788355,-0.4134604269181755,0.5022857134497863,-0.27276954183889507,-0.4293173669569025,0.3079097442420716,0.21578470294125573,-0.15583544458938156,0.4105022630061666,-0.13135428830843474,-0.17306592906618784,0.03446566982773036,-0.4735612125141448,-0.3948769834235572,-0.16783956366714076,0.24776120826339085,-0.41241115901414827,0.3584712605760968,-0.40480025455712637,-0.37340224628069574,0.2594598064071629,0.2053663703600794,0.4142480489996072,0.8636711034230131,0.07718900231867577,0.13630253031691963,-0.31238448359697546,0.6569298779210105,-0.15507827613131528,-0.3385577851155781,0.6592338982539337,-0.4920861074465915,-0.3393113059194906,0.15795724151927182,-0.11099051637969305,-0.27802547158001834,0.0516844021810487,-0.2599085968936701,0.2734416466704377,-0.025373106545012257,0.218987339520245,-0.416821263283334,-0.5122945848041257,0.2999809447899214,-0.1964758803549148,-0.35976125357064626,0.6169456261869775,-0.20930876673880616,-0.3512514999128174,0.2885168360241908,0.48043666957915976,0.26829573908070725,0.03459704302862287,-0.4659121661852912,-0.07694130209228581,-0.17797967437215154,-0.09502550404000597,0.030483810627441932,0.8363951789931401,0.039395788601131194,-0.15720476639820208,-0.2507723471794729,0.34518958732186705,-0.4105831710621817,0.0011237435549674693,-0.45146219720140446,0.15932203279613646,0.32087183249170576,0.09431864911949114,0.046274025147687775,0.47999384382715604,-0.4738307804518818,-0.4216393801759463,-0.18467723990577728,-0.43045191739237154,-0.18362237085686417,-0.1460323991519632,-0.1543463126271708,0.2985511386104193,-0.3080338855918087,0.042748544252280224,-0.08347259927600537,0.4433551145521288,0.4180883112094819,-0.3218518976878835,0.24458864400852387,0.09010883203968932,0.5712056096123234,-0.2784034265037158,0.14566918206438087,-0.23725419845230844,0.1708712991668066,0.41087790643025657,-0.36539690298502986,0.1358984572723521,-0.3419514108044539,-0.13923336427013455,-0.10031468028688056,0.2158100575630011,-0.6352257734450881,-0.08900778127891801,-0.010309185856554262,0.5373441435198592,-0.2021797221685606,0.0505639801029047,0.1932963134270721,-0.040097248493871356,-0.48040925701790166,0.6183982766266628,-0.32227335220472436,-0.24142506712351489,0.21777095204587193,0.06923020757578487,-0.007367917851579423,0.46913176646478716,-0.1747167286482424,0.4893843423642861,-0.18886403280066666,-0.20204881345107792,-0.30940281871653547,0.020235990153415342,-0.2974826561541252,0.08757285842728495,-0.1632322446458568,-0.46226404252785785,0.3648860809198549,-0.21450878508446197,-0.3559779050631147,0.08719480414929642,-0.3091638631068465,0.4766937371260458,0.005609551433327403,0.048580726245017164,-0.24151290561870523,-0.3696865934980179,-0.10578916460912217,-0.22431932537340496,0.22347551884451886,-0.37657799574858936,0.2800773423121211,0.16657069409199707,0.45318189459351754,0.09347199025779923,0.11095371336089867,0.12297280446419015,-0.4248869616960261,-0.041431168474178735,0.042670247174051025,0.3983842772787726,0.37451809406036923,0.3625683632678772,-1.1481460372914225,-0.11530658957142806,-0.20205953942208646,-0.07234090203674341,-0.3110916109909325,0.23509653209117126,0.4183314343957994,-0.3403567479376458,-0.1610779499519871,-0.16174095029063923,0.2590301278667348,0.1063264920258753,-0.29446057450695023,0.7853731035813165,-0.2794363874351995,-0.12448011472675835,0.06681054221365619,0.4863811282726902,0.2216012766838552,0.20758014815433537,-0.09875021418613668,0.4538785532010684,0.4900379303900788,0.34306901442720594,-0.36984201382657267,-0.9656499216937616,-0.44218200039206335,0.3947593284434667,0.40804916248788087,-0.11149859651455706,-0.30437216230633646,0.04867909445796498,-0.4231201762167615,-0.24279163474709825,0.25136153302274133,0.15457688340066023,-0.1490434191704862,-0.2803392745091708
-0.2781321290943625,0.2818889514521563,-0.42078085202328186,-0.03162238009769372,-0.46158394889905535,-0.29185843308234716,0.28841619442754396,0.027245035054478072,-0.14448993613429567,0.13587933457171028,-0.18014254537870153,0.38397374540091556,0.3165075729041364,0.3504369125022194,-0.23775374086957993,-0.27558516918883275,0.10025118405055362,-0.6819916203076629,0.229060128604873,-0.15728163460524017,-0.38095031702350973,0.11449261442859858,0.08881782542712452,-0.5270025952013657,-0.3564594635755697,0.29664400085071624,-0.1284609649756432,-0.20778000742973451,0.07438058103094297,-0.22859575479648778,0.4689198911266911,0.18621907371214597,-0.08433927075850661,-0.03183226163616908,-0.1338939040264923,0.13378913244119706,0.2984969690575997,-0.23390903671527694,-0.3197793420588886,0.4145469813403895,-0.2507009562290151,-0.4020581067363005,-0.045150537441605576,-0.3553429205326362,0.4950391730449323,0.4841824864303453,-0.27031883478886537,1.0103775542935203,-0.3356075887926216,0.2315980970795088,-0.05403075461668487,0.34936250700238525,0.4601933864025207,0.029280112784486948,0.4047679261706249,-0.003433836786646178,0.11397327743720308,0.28321357537957415,0.37537918352374944,-0.03347603265593548,-0.29460079240749276,0.4643864756141661,0.4821044241605933,-0.08450592781676433,-0.22703534728922312,0.1664966973848763,0.03627385750467646,-0.09448254617734193,0.43269564779136155,0.4018697769385749,-0.0795611557287842,0.3530963234572323,-0.4763741929964496,0.18691903135844462,0.12631446663369172,-0.22492846361774452,-0.3466761430895026,-0.5424906174637187,-0.2083458691398074,0.04654607558360046,-0.1828339710076346,0.6512979525554133,0.40751964445129196,0.2444878046561629,-0.05044856126316362,0.45175941189622054,0.424883309076269,0.23777162332592672,0.11157379921053144,-0.44881849143984537,-0.3980587133445144,0.22202885343109652,0.22977368302484305,-0.40660233284065866,-0.15247366461820275,-0.3778917936658297,0.05602915230102109,-0.036577106599671734,0.32584245860875577,0.5180505723939586,-0.03898443272125387,0.3956309232957579,0.17151742890541893,-0.16671685035462086,0.14741254867870157,-0.22311838994684322,0.3575656586700889,-0.19152313602391588,-0.1696453660702836,-0.20972434153554184,0.2143868706455932,-0.21426024649984157,0.3895826067255272,0.24099459634457293,0.013377273547806821,0.00028290172906681306,-0.25350450198227015,0.3043714679979297,0.6439493671551229,-0.4342279586882043,-0.2898393302929615,-0.4408231096150761,-0.1682415093761751,-0.3843248357036817,0.03606943716366837,-0.496488134160007,0.22148208467648892,-0.0534200771260992,-0.29146961945510563,-0.26998874927707084,0.42061223782691426,0.20474811383607017,0.45100458018921147,-0.05414472040196108,-0.20542130750160043,0.03337628133420099,0.26409010677462075,-0.03506283036624432,0.031015619553442907,-0.15846728216018072,-0.013733154838224274,0.3007755199158016,0.2623815656906082,0.12423716414682567,-0.42366220453940784,-0.35497480329393477,-0.30154185317175397,-0.09898109746956803,0.04311760060358044,-0.4886916438213545,-0.39009943470462544,0.03727685678473367,0.3342085410809755,-0.45802507485923777,-0.350761585498989,0.16115175686712957,-0.08561756817196725,0.1809180303967832,0.19944658166215082,0.24973398421563922,-0.0018010916550300522,0.12480154701600213,-0.01608217735745506,-0.04003641259849621,-0.34635647315372725,-0.29077497863853674,0.03858962804614519,-0.4483367923266408,-0.022471689915445122,-0.14449660955197285,0.4245216875782914,-0.07945344295006879,-0.443060695108921,-0.039633425787399645,-0.40245044764767485,-0.1760210176746025,0.3447178754167125,0.43636535708223595,-0.43606564875206216,0.14088631394885923,0.09128099004494643,-0.240335666038069,0.33919230736327144,0.4865709479216058,-0.45006256072009826,0.3238627440809092,0.1394976733770793,-0.30645675664903704,-0.22133217012009565,-0.17665235079413122,-0.42037298816796265,-0.4145134321130762,-0.1355739647398634,0.3605098250327723,0.03136985111049684,0.36399586763094216,-0.17313004609778815,0.5529510598146558,-0.197085371055861,0.3258650336281934,0.12210571144539381,-0.10938314246152891,-0.4393903963461855,0.1924348463056123,-0.10073714041651509,-1.7276334996621265,-0.3134740534094175,-0.5051756983468697,0.5311879953294502,0.27608588313136123,-0.32807063466278746,-0.1525314588772952,0.14348954347599263,-0.2543608710094961,0.3370612299856329,-0.26351879019397295,0.08523225192177535,-0.3988153311172516,-0.1437850492591442,0.34501589672055294,0.5544965020624387,0.2604465208790247,-0.2302021363565132,-0.17366630187998752,-0.4265765568368084,0.014927254379772006,-0.22513602865692284,0.10339257299943169,-0.2522720427546334,-0.4402654377677609,-0.13288310479057136,-0.19297477044951386,0.363546059518225,-0.37513354950558875,-0.15113985765074922,0.21552908790904143,0.08387063080162802,-0.1634674988464688,0.49776229487834367,-0.0021582901335350725,0.3615692994198684,0.328600580178996,-0.3920167316158376,0.20223154713116195,-0.35568708727720477,0.4245188592182596,-0.39713047082722247,0.4585286106593449,0.44396762726138983,-0.04810569045521462,0.2387739125945119,-0.1604663329874112,0.2672287916125998,0.08507989347790909,-0.23562915430782175,0.049628404122138245,0.4358857729611517,-0.00925520884397928,-0.41445293290053004,0.4337015367622609,0.5488541806475477,0.4392434852920473,0.3830311619019035,0.44937109758759275,-0.18215116938905865,-0.45423842419028754,0.04429267484016073,-0.1593286581395888,-0.41952696092769987,0.4281875253477707,-0.31737888351954546,-0.3496860150514504,-0.18691638248383474,0.4392085262502651,0.03406798203855139,0.2863544514446539,-0.28948601792571854,0.09999483064326588,-0.37705489136786613,-0.19600966597024017,-0.0741247891676221,-0.16567687473614792,0.4556864035494502,0.15224607415639385,0.4188593370241207,0.09718079009245206,0.21986848845609905,-0.07049351117779314,-0.09646291524943514,0.4754227415303978,-0.17250079028217793,0.28592316310465293,0.047651990691045046,0.4942757330658269,0.4790396849332821,-0.06422438790117678,-0.3516963489082891,-0.18971020168014113,0.5188301047976628,0.3658801486048295,-0.3102064356038763,0.10649640896296662,0.25955040347131525,-0.3481010759891009,-0.3011735270601727,0.45023526148017806,0.05792744644109101,-0.38017228088790417,0.11857262267290938,0.16585366783866087,-0.3789302854439552,0.4119499677391907,-0.1428994571746132,-0.13754958592641872,0.21814572088734524,0.2907723280307223,-0.4268338680631897,0.09766421534299728,-0.4745746553269237,0.4084388933386248,-0.1170906610402536,0.5143773295888586,-0.1558106446366898,0.19599759617457468,0.07715295019585244,-0.8872490926756113,-0.16141712700945932,-0.47238964539901507,-0.24625218737988086,-0.02288968746946198,0.22196815271459128,0.2479460040244585,0.3783319030565118,0.335791731933558,0.19531653861837517,0.41846058226103533,0.1264977652229394,-0.46347424850807983,-0.46487000398374606,-0.24445604003435398,0.1244323924879492,0.015768652273341364,0.3161010833727625,0.07993710698982646,0.3556378019238072,-0.028172269207621215,0.13014814236883002,0.3511119179643033,0.21888247215747395,-0.041191372860400546
0.0593669322366867,-0.13304192811281962,0.3019050105531449,-0.0780058947114293,0.2581747626863705,-0.2207919739447589,-0.40269821460351696,-0.40811228654713755,-0.1170603988629445,0.12546874466752722,0.15575549645906686,-0.4710532881835026,0.04948183996009446,-0.33030450114940424,0.12758320388175212,-0.37058607377579333,-0.48521190335609177,-0.7144605093303178,-0.5017906122378841,0.06282184542180574,-0.334008675871867,0.471264257144168,0.027236266202926036,0.4606963379766409,0.6303568880490747,-0.010236935200349176,0.19354253869525248,0.1881868803919831,0.19862032442266733,-0.3828654617297581,0.2514189003900975,0.2028700393056092,0.0002100368441278696,-0.3512867840780802,0.3453034020151904,-0.4937568638980031,-0.26129670330040894,-0.39062725923582214,-0.05663671797073345,-0.08502930336782528,-0.2489534616629393,0.4933502787375169,0.3556039444411078,0.11571959119599937,0.10522643853030318,0.5575496602110769,0.2640903298469467,-0.8556336333071796,0.2757985301437466,-0.4962741934327402,-0.2479947730770986,-0.29138624542441505,0.13139591356738578,0.08036298897720644,0.1499727799270301,-0.22025041769798465,0.3045524882328946,-0.5068025764990861,-0.35787838211456885,-0.4462111874594017,-0.1224781765255412,0.07846182745583907,-0.3210842754833691,0.2996073084831378,-0.3260929106951371,0.22061627394353,-0.07742841863355872,-0.002298507297446596,0.3674355678187532,-0.010840708913399557,0.3462458132174677,0.21887961028271516,-0.34572821928002745,0.05242050602364526,0.03881457422668095,0.09219079388429759,0.3768800003584811,-0.36187770780488543,-0.37178556647534083,0.22702234945008481,-0.16178909550135503,-0.011491395409864063,-0.04089397525979626,0.3624081322533379,-0.47945841693794844,-0.20226410209382553,-0.1954079542770092,0.4453911689254978,-0.27799715254743396,-0.13415087253392344,-0.12826357610912173,0.025865876911231076,-0.4784526236313986,0.24251174434020945,-0.2507618865883795,-0.001915668203784611,-0.07077625136718942,0.09906243663642694,0.6907823589477287,-0.2932033093139249,0.16888753504138018,-0.4457740053793626,-0.17777516315733388,0.15578614879174896,0.49394450599416584,-0.0354395114866149,-0.16094401492052426,-0.2034530595636693,0.4649608403800514,0.22259592942775236,0.24354341501344826,0.42180249736172887,0.18823511301189066,-0.0009006684208137106,-0.43407279994454934,0.35301044272509835,-0.09370246181112496,-0.020002622378428165,-0.3829727475613211,-0.1696591945391554,-0.12172714456043847,0.0385940598459666,0.33415622675657386,-0.3041152290770668,0.04484549640486801,-0.31976271598864114,0.3390194971529108,0.36865811038808255,0.04402639461841237,0.345624038121137,0.22394321822062266,-0.5004313429395124,0.18125032906320412,-0.3974581587664564,-0.3475871299475025,-0.391736992244736,0.09774922326891389,0.1921159257075035,-0.4219877640835071,-0.06923567238791017,-0.2026743828230081,-0.09194632530454988,0.23932597166062664,0.45888556752423776,-0.053528508134578066,-0.4246103558283335,-0.4045949136227495,0.2529179967185573,0.10837408518595766,0.24193522297603204,0.51489686506191,-0.12448802311811802,0.19717877462109334,0.1071021947356293,0.09748039035289065,-0.2715840422146164,-0.3688107390369535,-0.4081386813737292,-0.08027140128284863,-0.08534279881900747,0.5313329678021946,-0.3482335727446245,-0.423167298825294,-0.3067955841125832,0.009692817971713348,-0.0656576385576442,-0.2987770924324291,-0.13732519732225001,-0.4247630023990729,-0.35994879094599236,-0.05143505211612873,0.49971127250165237,-0.442624451924453,-0.4440455452697202,-0.32388729262844007,-0.5507524933959622,0.2768786115324748,0.5691503871625422,-0.09789382321891374,0.4855898751463732,-0.25095979530634405,0.3206453253447191,0.35125242352358765,-0.026941936510808125,-0.14010289181631363,-0.43243604306082006,0.3933894741841357,-0.13002712645003495,-0.04608229356292388,-0.18929309456494858,0.010888717718656248,-0.0048683621289860235,-0.3018895832122335,0.3358268467359075,-0.35920083596424335,0.13319631940001098,-0.48022600818260996,0.02672674092520164,-0.35978102312932647,-0.38948935600490675,0.042515488778790994,-0.41197990680553753,-0.11588229963359864,0.08185429469291214,0.1118561430504519,0.8278771952989555,0.41393323648025554,0.24657029900682534,0.4885321343816949,0.07132906833395243,0.13462812608858699,-0.33302840622437685,-0.3607110096983598,-0.19877752923514133,-0.1143428046350351,0.14075634617732896,-0.3345148689951795,0.45663375874419043,0.11614125959806874,0.09842257318980897,-0.4510615991759095,0.16631458688037343,-0.33877224650655113,-0.04379460750699574,-0.4530297234839502,-0.08982071201730576,0.45696615963087595,-0.09053697555611756,-0.7352282417631956,0.032370114435316476,-0.25251997374902524,-0.31217885183037897,-0.3122710843599503,-0.24183254833232987,-0.3700879105145897,0.09635388662278488,-0.34822877572240474,-0.07954343149044314,0.45915793755382694,-0.3848947132371871,-0.4055688268067693,-0.20005217142548604,0.08024185113612713,-0.4379412439495868,0.3555788217872938,0.1790319639841293,0.2630630203132201,0.419244962760272,0.6413717346440432,0.010485651849415698,-0.2261991077036623,0.31814240542173794,-0.4261941210146659,0.5685828237920864,0.025010811494556418,-0.279967137107248,-0.2334496251238441,-0.18716494142740508,0.4790483532115693,-0.10652562783582423,0.9618737677622121,-0.1283570114757869,0.37289960014880746,-0.47938973229009985,0.23869451779255144,0.36711233555702466,0.15569717928341295,0.5911214241418059,-0.13722429957116214,-0.029260676694218127,-0.07174944358935277,0.5726957634795097,0.14258205156431483,-0.18140924357161728,0.20778392794730094,-0.12062133570314815,-0.3512903210140322,0.34598513103165357,-0.3664890370812809,0.09508617240465908,0.20422037019935158,0.030488031077417606,0.2114593992962241,-0.3259408973151542,0.009627246643414229,-0.04157512310346951,-0.13467223842674386,-0.3518442275421011,0.22248276744521545,-0.36887024399064133,-0.42223182325766956,-0.2362915010832275,0.009785288851407215,0.022588971385294934,0.3095739714601992,0.46101277929856094,0.22627526022802988,0.057390570491953306,-0.18738418446892355,-0.016173978629374117,0.34225077958683675,-0.1999497190586592,-0.3471532862096571,0.3101227914240171,0.2966121974824259,0.00046290353359475223,0.027698658164593597,-0.3423722650932959,-0.3242207852349977,0.30196388529451,0.06088916465221699,0.099514931405248,0.01486327993596191,0.11878553140309249,-0.007411372701413449,0.4270029837861935,0.033274004034663074,-0.2761297256849664,-0.24912458817529523,0.26234016202524857,-0.1954097968645033,-0.016770434852841284,0.2657804685857601,0.23611476091281425,0.03647781973950224,-0.04772118490301885,0.3096092146561382,-0.22185291500425086,-0.2596041897798358,-0.29205523814593465,0.16870906799333926,0.23480073353810457,-0.30001841796829526,0.028324909677528175,-0.4555904334247197,0.14202809971030098,0.2837508235576655,0.5896437917973593,0.13981160041860002,0.4079073720580474,-0.059825262908676936,0.011659230017905758,-0.2534928839342943,-0.43756387365972843,0.3481438391915073,0.453912071077724,-0.1253333728390556,-0.18631063157945849,0.06687157924824923,-0.23858872779358353
-0.4635370292646241,-0.0032897301768892093,-0.02921138304246508,-0.33577536873701264,-0.2954750856278577,0.0668494379217239,-0.5639203821815196,0.5634940354864404,0.019116299454279204,0.43528606756898963,0.16825916801483753,-0.34867753575371213,-0.30322876496014584,0.02017819530206779,0.42064552763874713,-0.1479602877048384,0.6000181039346014,0.5242962646492187,-0.0726261379592797,0.3502218586029528,0.22614330037972596,0.46693318658136107,0.26696303838143337,-0.10021570215715529,0.437817410049782,0.061723550449652755,0.1523535502058411,0.24775754320303844,-0.42506848553800264,0.493657990040468,-0.06357871649670303,-0.06485950547320068,-0.36287386157078105,0.27520407323505586,0.2182751434999132,0.1408241328787508,0.19421354567394147,0.3333533346224078,-0.5343590215381372,-0.09335405733206578,0.026237387890223174,0.18631086738391311,-0.15507846589666463,0.2611252518404486,-0.4445533751804971,0.21306254662798865,-0.14041591518201313,-0.730087309312644,-0.1597669720224739,-0.026651554301189817,-0.027555440413644276,-0.054056933843612195,-0.37906761821760904,-0.25923480618550887,0.4435527294899294,-0.08471670505489153,-0.4653163579224487,-0.4191817155764333,-0.1654420437127039,0.0010656492312550521,-0.05518598435141592,0.22121714253165692,0.2970027500382789,-0.4595774439137303,-0.4547229501961704,0.1136884473378001,-0.15019180869701534,-0.4813480550011294,-0.23066039515293318,0.19693365406505411,-0.10074336534938852,0.11362279053573072,-0.313175016799728,0.07838562746666818,-0.028731095430878668,0.2809778970906672,-0.10809385802683304,0.23327156993736148,0.13352601984341994,0.07309983841804112,-0.32047509586746703,-1.035625383264409,0.06456416868195669,0.43800498587398995,0.4025864876546658,-0.0794974431126623,-0.4921580939842826,-0.33176752795126563,0.18388146920026915,-0.06038018568489898,0.49794704893658454,-0.32148195688960374,-0.3196846211707402,0.13942842475519576,-0.01863204173624208,0.1581350711751052,0.06532255750300624,0.5310312904961695,-0.4515555851817534,0.2955127059539931,0.15752574804977953,0.35157509632892514,-0.2450293342324871,-0.17984752462386017,0.26509309751633225,0.009394163947887923,-0.07519239966994687,0.05416424679476533,-0.3912566925603401,0.332936740142386,-0.4239209297016698,-0.4217576273306244,0.3076207543660499,-0.03839641172690131,0.5768464458646186,0.06379531185941713,0.44684123647673163,-0.11796063393115905,-0.4269718087501417,-0.15554456220721236,-0.34163876163580165,-0.2250729672217659,0.19742540166270398,0.11000053979034584,0.789246871766704,-0.10034583665576315,-0.43023311319622815,0.02719765027805594,0.46459504090898923,-0.06732721405677053,-0.13852599153426945,0.06205703069551295,-0.43092573841429416,-0.16752638668948866,0.07172976674483378,-0.3865239423501187,-0.0954605371561168,0.30729291349892046,-0.07911644342076456,0.3069285425317905,0.09870328124648285,-0.460799305817684,-0.14414242737926944,-0.05387170049265186,0.24582197780885673,0.33218716491533923,-0.4786633086016895,0.3387472180011061,0.2010783816268337,-0.02768081961481698,-0.08143339084584074,-0.19778480353887815,-0.48546199049790206,-0.437623037940151,0.5629910105939409,-0.21991773670607026,-0.2623235196649147,0.3845963826355318,0.44242428209200996,-0.3161535970491334,0.26175608894835123,-0.43649811797527016,0.03830338485722661,-0.34349636776202835,-0.30330237709047775,0.16796290414469503,0.3242386976298696,0.27531513323822066,-0.05358451795501973,0.10057444860719067,0.2765195745871866,0.30602974588502374,0.31602704985306285,-0.1289851883125438,0.35787062615838383,-0.7276880924727613,0.3041864259788895,0.22597863383850547,-0.32856553478918016,0.20070617645973804,0.09052508413437126,0.2769668871273432,0.04946466816884163,0.2690130415046096,-0.5560510935558898,-0.2011955194902455,0.4139763969286434,-0.2546825628799021,-0.23649851887875356,0.029965037764588486,-0.5216484140898003,0.06576071592197165,-0.2727012575042052,0.12300386093504433,-0.36478491695687987,-0.2763895187331263,-0.49598055595603396,0.3722176943568871,0.12912998824144617,-0.06413665873219658,-0.03510940503356789,-0.38636597440949827,-0.1763901398169232,-0.33280923617371516,0.4039083617390013,0.862867968443862,-0.22549327188590063,-0.47886182908230795,-0.5427094441383956,-0.19618618728454484,-0.29913557112276984,-0.18086141857872898,0.29724790924989036,0.28652878949846233,-0.40369409152630464,-0.458202997825236,-0.2971381149913501,0.10558939010555886,0.2461584845751026,0.12982483306588788,0.38976807287529136,-0.27350651806430504,-0.13775527573518973,-0.39801037799763667,0.3098343798571507,-0.652881379661496,0.19647877248882561,0.39144406354529776,-0.3689618569660936,0.27962917701501455,-0.12287801647239333,-0.3065978121868316,0.1523301787405726,0.13731168302305002,-0.3700846120591819,0.5099094720721873,-0.03434251259116601,0.12102824782848223,-0.25120604348423103,0.02715568905579511,0.08111609178568906,0.13050808830854913,-0.3096730744627475,0.14572766529967224,-0.18965837609679312,-0.0726871576795804,-0.13464085436428444,0.42038315544668703,0.21969932869843187,0.14414757094147823,-0.46908139309270563,-0.23474399894123402,-0.3606925169830622,-0.2852749523848864,-0.34471358989517636,0.17337851515846503,-0.08296908287241074,0.2601540775550676,-0.08446893273474859,-0.0034827793340142118,-0.1516633213507386,-0.11360958061108273,-0.3370832540177346,-0.30780418222340744,-0.39563493289804924,0.16036107066121205,0.01727083140170494,0.11279225943082222,-0.4048843709639926,-0.3818499602056112,-0.44973035801245287,-0.14426609420339223,0.05282435866488729,-0.36720510119177474,-0.19002906265324146,0.32954880757314775,-0.08606350427479527,-0.05999426120373152,-0.374929991869192,-0.09424979991153813,0.06445166578374067,0.6701509369233584,-0.14090444522347387,0.30212735413691694,-0.2452948616267404,0.43933187378709226,-0.11179213090893224,-0.2785693993388237,0.4746496213764182,0.08535635045601742,-0.4836449419809297,-0.26765711094559175,0.1780374835235232,-0.18624027261273818,-0.22857804477570773,-0.10107835294599804,0.09211915285403358,-0.031444210304066626,0.07374749336794928,-0.08778493764663532,0.22414808521883717,0.3575778312048513,0.17604777384519574,0.14482586827524552,-0.5715749604547105,0.31534498175271813,0.08022249607639448,0.4660372286970397,0.26679317788208506,-0.3191456138219666,-0.24087144176937694,0.2162440425263001,0.6027027685215796,0.2890293038343176,-0.44143095442427727,-0.06529944272623012,0.20298683186722577,0.43815742664523893,0.408260497207046,-0.32192496752118693,0.1912850875182352,0.459270108179682,0.4496942747977344,-0.02675810689832825,0.24247969858658158,-0.0818331051500811,0.1813006379407226,-0.4335416453798019,0.1260288363963697,0.020306841113086695,-0.08350948673405553,-0.1648222439128491,0.47588823998557667,-0.49875821537590315,-0.4780275081060623,-0.023209085405135187,-0.019658860523745682,0.036670091940282125,-0.2929419056846245,-0.03696153230091253,0.21939915429656173,0.35482919897795445,0.5224854033689753,-0.11717916897385967,0.06763063953700807,-0.19518097570533258,-0.2805536815677697,-0.3369258432951208,-0.21464252515503934,-0.16352592844319022
